condition,0,1,2,3,4,5,6,7,8,9,10,11,12,13,14,15,16,17,18,19,20,21,22,23,24,25,26,27,28,29,30,31,32,33,34,35,36,37,38,39,40,41,42,43,44,45,46,47,48,49,50,51,52,53,54,55,56,57,58,59,60,61,62,63,64,65,66,67,68,69,70,71,72,73,74,75,76,77,78,79,80,81,82,83,84,85,86,87,88,89,90,91,92,93,94,95,96,97,98,99,100,101,102,103,104,105,106,107,108,109,110,111,112,113,114,115,116,117,118,119,120,121,122,123,124,125,126,127,128,129,130,131,132,133,134,135,136,137,138,139,140,141,142,143,144,145,146,147,148,149,150,151,152,153,154,155,156,157,158,159,160,161,162,163,164,165,166,167,168,169,170,171,172,173,174,175,176,177,178,179,180,181,182,183,184,185,186,187,188,189,190,191,192,193,194,195,196,197,198,199,200,201,202,203,204,205,206,207,208,209,210,211,212,213,214,215,216,217,218,219,220,221,222,223,224,225,226,227,228,229,230,231,232,233,234,235,236,237,238,239,240,241,242,243,244,245,246,247,248,249,250,251,252,253,254,255,256,257,258,259,260,261,262,263,264,265,266,267,268,269,270,271,272,273,274,275,276,277,278,279,280,281,282,283,284,285,286,287,288,289,290,291,292,293,294,295,296,297,298,299,300,301,302,303,304,305,306,307,308,309,310,311,312,313,314,315,316,317,318,319,320,321,322,323,324,325,326,327,328,329,330,331,332,333,334,335,336,337,338,339,340,341,342,343,344,345,346,347,348,349,350,351,352,353,354,355,356,357,358,359,360,361,362,363,364,365,366,367,368,369,370,371,372,373,374,375,376,377,378,379,380,381,382,383,384,385,386,387,388,389,390,391,392,393,394,395,396,397,398,399,400,401,402,403,404,405,406,407,408,409,410,411,412,413,414,415,416,417,418,419,420,421,422,423,424,425,426,427,428,429,430,431,432,433,434,435,436,437,438,439,440,441,442,443,444,445,446,447,448,449,450,451,452,453,454,455,456,457,458,459,460,461,462,463,464,465,466,467,468,469,470,471,472,473,474,475,476,477,478,479,480,481,482,483,484,485,486,487,488,489,490,491,492,493,494,495,496,497,498,499,500,501,502,503,504,505,506,507,508,509,510,511,512,513,514,515,516,517,518,519,520,521,522,523,524,525,526,527,528,529,530,531,532,533,534,535,536,537,538,539,540,541,542,543,544,545,546,547,548,549,550,551,552,553,554,555,556,557,558,559,560,561,562,563,564,565,566,567,568,569,570,571,572,573,574,575,576,577,578,579,580,581,582,583,584,585,586,587,588,589,590,591,592,593,594,595,596,597,598,599,600,601,602,603,604,605,606,607,608,609,610,611,612,613,614,615,616,617,618,619,620,621,622,623,624,625,626,627,628,629,630,631,632,633,634,635,636,637,638,639,640,641,642,643,644,645,646,647,648,649,650,651,652,653,654,655,656,657,658,659,660,661,662,663,664,665,666,667,668,669,670,671,672,673,674,675,676,677,678,679,680,681,682,683,684,685,686,687,688,689,690,691,692,693,694,695,696,697,698,699,700,701,702,703,704,705,706,707,708,709,710,711,712,713,714,715,716,717,718,719,720,721,722,723,724,725,726,727,728,729,730,731,732,733,734,735,736,737,738,739,740,741,742,743,744,745,746,747,748,749,750,751,752,753,754,755,756,757,758,759,760,761,762,763,764,765,766,767,768,769,770,771,772,773,774,775,776,777,778,779,780,781,782,783,784,785,786,787,788,789,790,791,792,793,794,795,796,797,798,799,800,801,802,803,804,805,806,807,808,809,810,811,812,813,814,815,816,817,818,819,820,821,822,823,824,825,826,827,828,829,830,831,832,833,834,835,836,837,838,839,840,841,842,843,844,845,846,847,848,849,850,851,852,853,854,855,856,857,858,859,860,861,862,863,864,865,866,867,868,869,870,871,872,873,874,875,876,877,878,879,880,881,882,883,884,885,886,887,888,889,890,891,892,893,894,895,896,897,898,899,900,901,902,903,904,905,906,907,908,909,910,911,912,913,914,915,916,917,918,919,920,921,922,923,924,925,926,927,928,929,930,931,932,933,934,935,936,937,938,939,940,941,942,943,944,945,946,947,948,949,950,951,952,953,954,955,956,957,958,959,960,961,962,963,964,965,966,967,968,969,970,971,972,973,974,975,976,977,978,979,980,981,982,983,984,985,986,987,988,989,990,991,992,993,994,995,996,997,998,999,1000,1001,1002,1003,1004,1005,1006,1007,1008,1009,1010,1011,1012,1013,1014,1015,1016,1017,1018,1019,1020,1021,1022,1023,type,condition,drug1,drug2,pathway1,pathway2,pathway,condition_adapted
control+Panobinostat,-0.06585096,0.09343205,0.07093982,0.015049655,-0.029860185,0.06557758,-0.13380533,0.12468442,0.16214435,0.05790246,-0.058721635,0.061141893,-0.12872334,-0.004676819,0.10538123,0.08782155,0.039278388,0.00020675734,-0.1210835,0.045774724,-0.023368869,-0.14865862,0.11335219,-0.11248959,-0.029982498,-0.09071423,0.020257726,-0.03889757,0.027545508,-0.13763462,0.025653478,-0.019809442,-0.16083938,-0.124352075,-0.032726463,-0.008506452,0.15205929,-0.07473192,-0.07251109,-0.027576262,-0.09445791,0.14096962,0.013076996,-0.023504728,0.05248099,-0.04560656,0.064786665,-0.0065045897,0.030561524,0.029782163,0.07526246,0.014293711,0.02243701,-0.15194203,0.08577972,-0.010876725,0.13011928,0.10220883,0.0046336763,0.028430996,0.11985756,-0.16261335,-0.05495533,-0.17391214,-0.028138865,-0.046134412,0.0067122476,-0.100194044,-0.06054187,0.11536283,-0.0055142688,0.06633459,-0.049842957,0.11082352,-0.048614156,-0.031236278,0.08470059,0.10556559,-0.014098019,-0.015498317,-0.11503288,0.080887266,0.08959163,-0.06998202,0.039178766,-0.074704245,-0.036691643,-0.10423883,0.09364839,-0.031505287,0.015180286,0.09623827,-0.14715536,0.048816312,-0.0027771532,0.12458905,-0.057288624,0.13879761,0.13536763,0.13591589,-0.12083747,-0.06570198,-0.16504201,-0.12578118,0.10952895,-0.125327,0.14975093,-0.0980497,0.02979293,0.07751035,0.12800433,-0.0060619134,-0.10569091,0.032139655,-0.07591782,-0.073820904,0.018793732,-0.0787818,-0.0012929144,0.0856787,0.10340381,-0.049666688,0.07325662,-0.12541421,-0.0198764,0.089552626,-0.07804407,0.059815094,0.1164306,0.06629459,-0.009604989,0.017260035,-0.042227775,0.09442411,0.12794639,0.16233757,-0.060504373,0.12723796,-0.049506295,-0.07293898,0.07833128,0.007922653,-0.026693003,0.04325954,-0.07954742,-0.06665097,0.09515224,0.08820958,-0.05648591,0.12060358,0.13591608,0.03196447,-0.105145134,0.1902654,-0.03194523,-0.115225255,0.109436855,-0.075088285,-0.007270334,0.08896955,-0.17692302,0.0403682,0.13099436,0.17203248,0.030824171,0.048646156,0.051787026,-0.10339757,0.013560895,-0.008269909,-0.14249046,-0.07698101,0.041020244,0.037449908,0.1391334,0.15321955,0.115428925,0.16965772,0.10457691,0.0017752852,-0.060437556,0.16197239,-0.1275734,0.02441003,0.08365594,0.12435159,0.017626524,0.04685071,-0.06177394,0.021296531,0.057350013,-0.111794665,0.05287726,0.1419983,0.043255027,0.048201267,-0.07947066,0.09789741,0.063853554,-0.040260207,-0.051506575,0.07329498,0.16018566,-0.044921983,-0.07900306,-0.03684484,-0.05142902,0.061679106,-0.08887917,-0.030906474,0.11382739,-0.028228104,0.0073364377,0.059297323,0.0763003,0.120099775,-0.038459554,-0.1431917,0.14033814,0.0014165547,0.14429364,0.074157365,0.083118364,0.018242247,0.094910465,0.09962881,-0.14698558,0.12627295,0.14948203,0.06631939,-0.13024664,-0.13800393,0.046921078,-0.004034361,0.09344853,-0.038952217,0.0023627817,-0.12635568,0.02703818,0.17311853,-0.036166467,0.04062365,0.10063618,-0.099257566,-0.04492397,0.09748333,0.08841394,0.08626293,0.029294182,-0.03378326,-0.06875311,0.12307711,0.08901814,-0.0345107,0.09731925,-0.13186748,-0.13686775,-0.05525971,0.002165332,-0.06390068,0.06355404,0.10967542,-0.05356973,-0.15681672,-0.04588408,0.12643813,0.146554,0.07611673,-0.15726171,-0.08232091,-0.10202015,-0.1389322,-0.007966794,0.021548534,-0.10515494,0.09121682,-0.11384913,-0.018222023,-0.11521156,0.0012851101,-0.008062525,-0.089956075,-0.08145754,0.12792504,0.049369916,-0.038037874,-0.052808955,0.041729897,-0.103546634,0.14504905,0.03755159,-0.09593397,-0.07315855,0.11678264,0.0026032953,-0.0332323,0.033869512,-0.09628219,-0.08213604,0.15135238,0.0942039,-0.070490524,-0.05027663,0.07289276,-0.06338208,0.010385488,0.14292577,0.16231915,0.08893326,0.029844211,0.15805912,0.11158549,-0.015281711,-0.07882036,0.12006763,0.089753695,-0.08670151,-0.044337217,-0.135127,-0.00096577057,-0.12598039,-0.093917966,-0.08356266,0.070953816,-0.067264974,0.120334156,-0.094703875,-0.020375088,0.011209682,-0.03249163,-0.053483617,0.051389292,-0.110835016,-0.0065131085,0.041924883,-0.092127934,-0.053957727,-0.015993198,0.05174006,-0.084661916,-0.01596858,0.07371664,-0.046470366,-0.11360816,-0.07544685,-0.053295653,0.11796413,0.110494584,-0.040422566,0.038665272,-0.13404001,0.025493227,-0.1463812,-0.12573741,-0.14716442,-0.040819287,0.15614147,0.12303071,-0.04603396,0.08946814,0.020434903,0.008639078,-0.13784118,-0.018616803,0.14490174,-0.11946319,0.011439442,0.008154031,0.115828834,0.1432962,0.059768572,-0.03758727,-0.024677617,0.113316864,-0.092304535,-0.07370034,0.11211468,0.015705766,-0.09067123,-0.14395551,-0.00027401093,-0.11820775,-0.052762434,0.11340726,-0.11556505,0.120917365,0.04337384,0.13960707,-0.12161828,-0.081835836,-0.0769879,0.12910789,0.015078565,-0.07305185,0.12735564,-0.107375816,-0.12690884,0.059793573,-0.050614145,-0.024250641,0.042764004,0.055004112,0.15868059,0.1158747,0.06512528,-0.107628785,-0.054238964,-0.006607266,0.080600604,0.09950626,-0.016900526,0.07535547,-0.009517286,-0.0018718047,0.08648573,0.1442123,0.110604666,-0.19217977,0.054116905,0.12476,0.104254715,-0.03262247,0.071349256,0.11739625,-0.08067322,0.113974795,-0.07952044,-0.057041578,0.037636153,-0.060133044,-0.09442489,0.032723635,0.11772526,-0.10622514,0.031658757,-0.052121297,0.11098617,-0.0208664,-0.011810963,-0.066048995,0.10123301,0.057558846,0.056475423,-0.04459542,-0.09516308,-0.050244994,-0.08597192,0.13031375,0.012039568,-0.045593575,0.10010552,0.12947571,0.04442765,0.0023869032,-0.10150351,0.15716586,0.028719712,-0.02278684,-0.032691684,-0.048910335,-0.13251409,0.03572469,-0.08108504,-0.017860742,0.08101696,0.030802457,0.008308076,0.17046857,0.06705764,-0.03948812,0.092468604,0.10339837,0.06421665,0.09914037,0.14803818,-0.02202484,-0.10905875,0.011520759,-0.07894525,0.034034032,0.057692707,0.17976093,0.13189651,-0.08614509,-0.041817423,-0.13008799,0.094815254,0.11996219,-0.13260663,-0.017159626,-0.15572812,-0.11852572,-0.16385229,-0.04275725,0.13601065,-0.1115647,0.12105619,-0.08431993,0.14662543,0.047408488,-0.07322874,-0.041716803,-0.049340215,-0.013784956,-0.09714451,0.0044216574,0.039014135,-0.047518957,-0.08787183,-0.028829362,0.016823674,0.11207023,0.081280485,0.089067824,0.0094628995,-0.06001431,-0.17110321,-0.082617074,-0.09483551,0.052512858,0.03624777,0.017135177,0.15199468,-0.0753655,-0.09193639,0.061595134,0.1636961,0.020701358,-0.0775191,-0.09983027,0.13327047,0.079670034,-0.105407365,-0.02251152,-0.0742957,-0.09467176,-0.0082678255,0.03747832,-0.103699416,0.08233334,-0.053459544,0.038850524,-0.15084323,-0.124167986,0.0056837103,0.022823233,-0.11796911,-0.08213935,-0.022482714,-0.028096028,-0.069101304,-0.16355921,-0.024910893,0.0051845247,0.0582373,-0.1389762,0.20099796,-0.04378903,-0.0039130496,-0.12100801,0.13596234,-0.009255725,0.06770439,-0.153097,0.067811,-0.14185777,0.08849561,0.11858371,-0.10799762,-0.09867327,-0.026578045,0.08155347,-9.739678e-05,-0.14601211,0.035084415,-0.016152836,0.119711995,0.018795993,-0.026824148,-0.040918685,-0.12686692,0.12784843,-0.054295506,-0.008904222,0.10867378,-0.09397158,0.114826016,-0.10099234,0.05892139,-0.014876952,0.0340476,-0.08143205,0.03675455,-0.071374044,0.06864267,0.090613574,-0.013746712,0.016973523,0.11604766,0.047276363,-0.07096622,0.16011883,0.048603714,0.0017300845,0.052763578,-0.042794082,-0.08544516,0.03321304,-0.033241246,0.012068357,-0.11651686,-0.034021888,-0.08687226,-0.06626059,-0.068087004,0.13261008,-0.13038301,-0.1212694,-0.14191887,0.111042805,0.10217925,-0.14378431,0.05871431,-0.05045234,-0.133579,-0.04062548,0.010297943,0.0465917,-0.11813214,-0.06155635,0.09353933,0.017085226,-0.039127886,0.03614589,0.04766308,0.09026384,-0.021518983,0.09973999,-0.11724791,-0.14629564,-0.040989634,-0.066678725,-0.0077218954,0.0032136613,0.024912104,-0.124194145,-0.07060359,0.040095508,-0.07421395,-0.0821687,-0.038284272,-0.043982036,0.07190708,-0.13576637,-0.001636338,-0.11840454,-0.072114184,0.0007096159,0.062507905,0.12202945,-0.13593915,-0.09716197,-0.0476084,-0.023777515,0.03445872,-0.025102865,-0.115525045,-0.089475796,-0.093898475,-0.11276914,-0.0046395124,-0.08219276,-0.11037735,-0.09033508,0.16112694,-0.16123658,-0.051828615,-0.08395243,-0.0012398602,0.08754987,0.051229693,0.06856643,0.12708212,-0.04852105,0.08074348,0.019271336,-0.008585284,0.08323231,0.11033805,0.11738914,-0.0032290728,-0.030639278,0.040016048,-0.10430446,0.10772586,0.034796268,-0.057969622,0.042526547,-0.030135397,0.08006766,-0.005394018,-0.100750595,0.12437423,0.14320868,0.07607927,-0.112577565,-0.11761769,0.055197682,-0.13129777,-0.009536606,0.007007451,-0.07311485,-0.00028162973,-0.073724754,0.05845328,0.032641083,-0.05791929,-0.008873553,0.0990078,0.0686559,0.06204968,-0.11044362,-0.18885459,0.039782356,-0.008707514,0.07991601,-0.028035333,-0.011184951,-0.08850725,0.060403626,0.0405083,-0.15523897,0.12909608,-0.01646498,0.08687796,0.030737586,-0.046026945,-0.038212236,0.113624826,0.02306284,-0.006477289,0.037662078,-0.032831397,0.10137458,0.06347971,0.016252164,-0.036870714,-0.16348676,-0.040253285,-0.11010218,0.039534852,-0.089156576,-0.07200361,0.1404521,-0.056545157,0.07036448,0.21128799,0.014220756,-0.03950628,0.12344638,0.05339511,0.12266044,0.04437603,-0.052305374,-0.109708525,-0.047291167,-0.06555161,-0.10970917,0.08613658,-0.022339541,0.08933016,-0.09700473,0.034161538,-0.063434355,-0.1106069,-0.08653176,-0.13407426,-0.025643595,0.033129938,-0.08419216,0.07184243,0.115521125,0.06778025,-0.11571407,-0.08977234,0.076568976,-0.020945352,0.03567835,-0.009405777,0.14167236,-0.002873023,-0.012008116,-0.14570357,0.068300895,0.098236226,-0.14379518,-0.13759142,0.031510685,-0.11247854,0.058792677,-0.05295168,0.0010401229,-0.07293942,0.016384562,0.066174105,-0.033969477,-0.011424998,-0.07058434,-0.027884167,-0.15124002,0.10611639,0.05000786,-0.017722674,-0.024870882,0.09297381,-0.027046392,0.056434423,0.0399944,-0.008676209,0.1126676,-0.13079181,-0.16341637,-0.12195309,0.06551408,-0.002029932,-0.03673859,0.076503396,-0.05867433,0.14210802,-0.026069729,0.030760102,-0.08485331,-0.015089631,0.059340138,0.09660652,0.111146964,-0.023266617,-0.038805485,0.14583592,-0.15842727,0.15463479,0.055805594,0.05887311,0.102735385,-0.13621442,-0.07095552,-0.09320238,-0.06432302,-0.12693816,0.02677554,0.1290498,0.075518824,-0.12868176,0.05513969,-0.016112793,-0.064082205,0.1530475,-0.16028368,0.061928716,0.10173344,-0.028651489,-0.13323838,0.08142265,0.09653048,-0.16860467,-0.09941587,0.1171367,0.118596956,0.08179081,0.11282486,0.11686558,-0.07208049,0.0760992,-0.08521106,0.08153912,0.04795057,0.14024496,-0.075171955,0.17857116,0.016006391,0.14242496,-0.020475136,-0.06374438,0.16249904,0.07268587,0.14763919,0.10990581,-0.03651675,0.048219174,-0.15888534,-0.14343046,0.0039360393,-0.155105,-0.0326177,-0.066665515,0.14790104,0.097861454,0.1327805,0.114936695,0.03391513,0.030629236,0.0409619,0.044361785,-0.054602034,-0.16010572,-0.03549543,-0.07991392,0.0797134,0.1051002,0.0888012,0.018933674,-0.03500383,-0.035355326,-0.025656603,-0.09444079,-0.14451995,-0.065597646,-0.0032369585,0.061094217,0.028134229,0.10023511,-0.041130517,0.12465596,0.14925231,0.00836009,0.13668911,0.11198531,0.04096192,0.040782355,-0.032380536,-0.14676481,0.13966656,-0.062861755,-0.0068412754,-0.0060165487,0.10711071,-0.08922397,-0.1606592,-0.05153387,-0.050038606,0.15874067,-0.057700623,-0.031043129,0.07000122,0.14853777,-0.11276612,-0.10286094,-0.098659635,0.005643246,-0.029696692,-0.041451238,0.020924527,-0.025269289,0.10383195,0.05570739,-0.15415928,0.04182228,0.027667841,-0.040147137,0.07617441,-0.008979735,0.025615096,0.12248422,0.065631874,-0.0785487,-0.010266954,-0.017489413,-0.04945693,0.0829047,-0.013724833,0.005181941,0.07139697,-0.11535467,-0.14479387,0.0461465,0.002998705,0.07108588,-0.072708584,-0.080179244,-0.04402496,-0.12394798,-0.08221332,-0.1241224,-0.041413043,0.12696554,0.068611644,-0.08552489,-0.0932497,0.06943702,0.097248256,-0.056772877,0.06241963,-0.088830344,0.0925284,-0.12560329,0.11895228,-0.101513684,0.0818205,0.11358204,-0.08694762,-0.12935616,0.1497634,0.070947215,0.039720986,0.02588109,0.15319136,-0.023824247,0.14688869,-0.06759879,-0.03142647,0.16472468,0.11735554,0.006003711,-0.017970696,0.06446418,0.05864963,0.06239484,0.13561292,-0.015410825,0.16191939,0.095209524,-0.08897295,0.17652905,0.07837899,seen,control+Panobinostat,control,Panobinostat,Vehicle,HDAC inhibitor,Vehicle and HDAC inhibitor,seen
Dacinostat+PCI-34051,-0.05183069,0.07507421,0.19636717,-0.10598141,0.06510489,-0.03287209,-0.0146606285,0.07442658,0.081476785,0.014220476,0.019999135,-0.058364086,-0.16714992,0.122769885,0.10953218,0.122609936,0.03777984,0.033231214,0.041292947,0.114548236,0.0398454,-0.109773695,-0.025015406,0.030834354,0.06705187,-0.120335564,0.07748697,0.07835522,0.021602206,0.02618008,-0.029624656,0.036508884,-0.16474237,-0.1430425,0.06957992,0.017326083,0.11865156,-0.061659195,-0.045938876,-0.0043324158,-0.053086963,0.041230474,0.075638175,0.08216193,-0.043703824,-0.13900478,0.11443637,0.095905565,-0.033983257,-0.091849364,0.02276832,-0.048839983,0.1372996,0.002717496,0.15045042,-0.1072666,0.074436136,-0.0018379393,-0.10928913,-0.030919513,0.15323032,-0.008093348,-0.20360038,-0.055698372,-0.15377325,-0.04568892,0.11645109,-0.02106734,0.006611283,0.09228315,0.110903345,0.12887375,0.07954764,0.15776446,-0.006135305,0.0004353724,0.043010212,-0.023145033,-0.07566162,-0.06691288,-0.15687144,0.036265634,0.13732907,-0.0016804375,0.14386418,-0.06126388,-0.15049778,0.098934956,0.11711782,0.11417098,-0.0010407972,0.14227343,-0.14967217,-0.009309936,0.09565245,0.12267914,0.020868303,0.08187031,0.11298192,0.10592707,-0.15354227,-0.01224138,-0.04418397,-0.0038071054,0.044307534,0.03488212,-0.011608496,-0.054973345,-0.0008116443,0.019622201,0.06988388,-0.13303275,-0.07665522,-0.007880823,-0.13122465,-0.16678844,0.0028590374,-0.0014380957,-0.032493673,-0.035414968,0.044318315,0.11561402,0.10953992,-0.089283854,-0.032532677,-0.040103883,0.058477614,0.025572695,0.056702517,0.14973953,0.09567302,-0.025233606,0.06228162,0.15637562,-0.00605647,0.05963349,-0.09288034,0.106094174,-0.1516137,0.03966963,0.04978009,-0.05270282,-0.08164886,0.1139885,-0.051877446,-0.11972429,0.01844597,0.16537532,0.00451129,0.12947012,-0.03294196,0.0686769,-0.14138232,0.0007321123,-0.076425254,-0.013987968,0.09356145,-0.013180667,0.13517405,0.11863181,-0.1205452,0.11697155,0.025676442,0.06878917,0.14290713,0.15870245,-0.057764642,-0.10252004,-0.06026121,-0.08530787,-0.08131139,-0.16012733,0.060554832,0.14606626,0.112764545,0.04971588,0.02538934,0.14475049,0.0039048502,0.10697437,-0.13285683,0.12130646,-0.1622544,-0.021614296,0.07272804,0.07883938,0.04195227,0.015704604,0.050506163,-0.02441585,0.0008842489,-0.07832189,0.08531241,0.0036659546,-0.16849145,0.15925486,-0.05252298,-0.011333574,0.17784217,-0.065050036,0.045608573,-0.07212264,0.09922418,0.033820387,0.0037099626,0.0064876922,0.022278342,0.044164512,-0.0042979205,-0.0070512486,0.015158009,-0.18475506,0.08907921,0.10465162,-0.044514813,0.014831611,-0.096255265,-0.05064021,0.1358079,-0.034203157,0.112470366,0.0580487,-0.018817145,-0.062356476,0.038067855,0.08189403,-0.12476701,-0.0234437,0.12621917,0.11946702,-0.100876085,-0.051276196,0.17786212,0.16235639,-0.057071052,-0.096081674,-0.130124,-0.008815762,-0.03345014,0.11264357,0.090425186,0.0737472,0.09290534,0.01802898,0.07585152,0.11830139,0.16626701,0.110933706,0.11631187,-0.030206198,0.04738385,0.14338934,0.16474766,-0.09135032,0.11005298,-0.12980597,0.0026625597,0.054564122,0.01417282,-0.07965109,-0.10432162,-0.12057495,0.099730015,-0.06758351,0.010325337,0.05630409,0.14874999,0.09241033,-0.14291996,-0.12876983,-0.0093193725,-0.12962393,0.09504526,-0.032578006,-0.13407695,-0.008077999,-0.07919508,0.136966,0.03766688,0.08992548,-0.078316644,-0.14141542,0.023202527,0.06444444,0.05256969,0.005133493,0.036572855,0.14352645,-0.0120079,0.057311475,-0.008223791,0.069870785,-0.22695327,0.09063219,0.099832065,0.06024364,-0.041687295,0.0044174455,-0.100005694,0.09064736,-0.08212195,-0.044757713,0.052501805,0.048022892,-0.13403423,-0.044705782,0.063531175,0.07083047,0.09224246,0.038656015,0.018629879,0.12024592,0.068207376,-0.011768522,0.07772738,-0.027274553,-0.10647911,-0.09438942,-0.06894582,0.02633452,0.036875855,-0.15857108,-0.0822186,0.11865926,-0.022013403,0.12630229,-0.025077661,-0.11012212,-0.031046279,0.1962217,-0.100427225,0.08502721,-0.14849027,-0.061323874,0.026268955,-0.13181579,-0.0051542292,-0.046437945,0.13558501,0.086235575,-0.07255248,0.09989377,-0.12107232,0.0060261316,-0.03296849,-0.08722208,0.084562644,0.031458974,-0.0620291,0.05970296,-0.14213242,0.11396943,-0.012657799,-0.0429967,-0.11415498,0.1048544,0.03568159,0.15688431,-0.12372656,0.060797762,0.14003955,0.04106192,-0.113815516,-0.013662267,0.053026658,-0.08741872,-0.07691931,0.04294523,0.09899716,0.10173838,0.15245812,0.02195868,0.03429749,0.16482212,-0.010981273,0.00732427,0.077813186,0.007784707,-0.17106797,0.009578627,-0.07208742,-0.15075503,-0.062603705,0.00047199026,-0.14643362,-0.034425486,0.08784388,0.03741124,-0.10710315,-0.12364771,0.018157814,0.110354885,-0.052537125,-0.13440177,-0.035290923,-0.119767815,-0.13954328,0.014152547,-0.13260655,0.03703262,0.03575969,0.104993924,0.10669605,0.03129196,0.14024264,0.021713648,0.06445185,0.0623182,-0.008860431,0.12299381,0.008549174,-0.022708235,0.034809247,-0.08005985,-0.0144884195,0.087957785,-0.05688174,0.0040810215,-0.07671397,-0.040385224,0.054608043,-0.09186904,0.020764414,0.14654511,0.054694884,-0.045807064,-0.049057014,-0.10244331,-0.13418159,-0.14416385,-0.12245439,0.019395813,0.20786862,-0.15976986,0.10404502,0.098153606,0.011008586,-0.11704773,0.034265045,0.069428176,0.0011399487,0.13100734,-0.09037579,0.0171569,-0.101343304,0.060340546,-0.067871846,0.091386296,0.061292168,-0.10690434,0.039903842,0.09871117,-0.040805455,0.07553901,0.040411953,0.03977785,0.021420833,0.052957684,0.0385502,0.050054476,-0.08016877,0.1285935,-0.0065652365,-0.016252125,0.17514686,0.07534549,0.016649337,0.021703895,-0.02014973,-0.092626825,0.0068885684,0.014749143,0.035099663,0.16434588,0.09840372,-0.043488435,0.0047445665,0.11358589,-0.13034505,0.0032188243,0.10275896,0.08270912,0.020880818,-0.123391286,-0.12886368,-0.044951,0.14634053,0.1059185,-0.08752465,0.055912443,0.030809963,0.02828502,-0.16773549,0.0666632,0.056432318,-0.087820455,0.036495484,0.009050227,0.037936825,0.14047882,0.05814524,-0.11623326,0.17250311,0.13215408,0.07446968,0.09655582,-0.15696213,-0.18870372,0.013506291,0.034581356,-0.10376883,0.03194731,0.11797803,0.12774974,-0.0746291,-0.07624398,-0.11291509,-0.119501606,-0.04996981,-0.015229775,-0.028454691,-0.09987374,0.14797865,0.010786251,-0.09195634,-0.08223087,0.0907919,0.048716467,-0.09315041,0.101846695,0.04421219,-0.03965815,0.04742178,0.05686781,0.052741367,0.04709773,-0.093995705,0.09271969,0.034819182,0.010304823,-0.109761804,0.08385391,-0.03260566,0.058458313,0.110468075,-0.029102411,0.07714159,-0.02144929,0.029192606,-0.13056698,-0.16947901,-0.07428824,0.057011086,0.081792034,-0.014599286,-0.058381516,0.1359088,0.0702458,-0.05372555,-0.17843316,0.111909285,-0.1138494,0.17121315,-0.02976128,-0.034988075,-0.15162049,-0.042793535,0.099236935,-0.02045701,-0.06441689,0.019061076,-0.0037010575,-0.15839331,-0.089332044,0.08849744,0.16029166,0.028703047,0.15316546,0.10044128,0.11718247,0.020917382,0.10103742,0.022574678,-0.16052587,0.18461105,-0.12537469,0.17057459,-0.072213985,0.11834015,0.12310695,-0.15470426,-0.04217774,-0.16609602,-0.18221064,0.04443275,0.15388975,-0.096790485,0.070372894,0.1402939,0.08907133,-0.0410435,0.020594591,0.11053563,0.21518846,0.074963294,-0.078346364,0.06054376,-0.19097397,-0.098100886,0.03856785,0.007269905,0.09873284,-0.02928324,-0.007119864,0.10405971,0.09430674,-0.032921895,-0.14663616,-0.071930654,0.0565566,0.08727507,-0.07476971,-0.018703938,-0.04927674,-0.108148746,0.0096232,0.18271308,-0.09700862,-0.14924443,0.033555724,0.030816428,0.116208486,-0.093288064,0.097450495,-0.07858671,-0.009870314,-0.17916436,0.16291791,-0.004152087,-0.06926538,-0.06103005,-0.11577026,0.036315866,-0.052629337,0.07649123,-0.17122379,0.037540823,0.16557562,0.028407704,0.03748263,-0.10666881,-0.09594927,0.0933555,-0.14206854,-0.045049403,-0.012629965,-0.10545341,0.014889438,-0.01848605,0.064755246,-0.00118784,-0.08285098,-0.066921815,-0.16029972,-0.04462815,0.01687871,-0.06844198,0.05839271,-0.07946429,-0.13684301,-0.038020793,-0.016849624,-0.10331414,-0.15882161,0.11195658,-0.085696064,-0.07554437,-0.15185213,0.05233711,0.025803542,-0.05614035,0.10594857,0.07187918,-0.014366811,0.14278238,-0.13504325,0.13803776,0.10769545,0.018152382,-0.016015064,-0.0826229,-0.008341878,-0.04731294,-0.01719157,-0.045264404,-0.061827995,-0.00024678634,-0.13407455,0.09139635,0.15640181,-0.11432706,-0.027927876,0.07458025,0.03139885,0.03865192,-0.036707092,-0.102985226,0.09347291,0.09541739,-0.11611495,0.13807976,-0.12373858,0.06457938,0.06637188,-0.0724368,-0.07136387,0.11294518,-0.044719126,0.08051223,0.1607278,-0.06251388,-0.15922306,-0.109324194,0.13166139,-0.11307267,-0.020517241,-0.13406199,-0.09914014,0.084400676,0.09368915,-0.10735978,-0.02515055,0.11915293,-0.11561257,-0.08621792,0.0414517,0.06572977,0.065596886,0.076714866,-0.018668562,-0.02927791,0.08818893,-0.057802483,0.13306482,0.1753275,0.12696724,0.020061973,-0.03966487,0.035221275,-0.18613553,0.1548195,-0.1334173,-0.05699942,0.042674713,-0.08748731,0.11862956,0.034438945,-0.07851935,-0.0063204058,0.107188374,0.119323775,0.17233144,-0.08115384,0.031017317,-0.06108991,0.12326205,-0.081076846,-0.17919812,0.10317725,0.101437755,0.0106663685,0.035626527,0.06750809,-0.13555244,-3.0056573e-05,-0.16659687,-0.11979306,-0.07148031,0.079413034,-0.09658004,-0.05890351,0.05498618,0.13969591,-0.17647445,-0.11985301,-0.13397543,-0.073572844,-0.030871904,-0.14265473,0.08117925,-0.02457773,0.07654055,0.009809791,0.1366174,0.11388418,-0.15805177,-0.08686292,-0.0391468,-0.05261147,-0.13700387,0.017089318,0.14095895,0.08083056,-0.050824106,0.15411526,0.05135935,0.0025504066,-0.18900497,-0.068661705,-0.1461123,0.10958474,0.1770748,0.050406765,0.00071891537,0.11667058,-0.03271378,-0.055091143,-0.03358217,0.029011106,-0.018688658,-0.044313177,0.006870761,-0.03890465,0.06946629,-0.14776182,-0.11322938,0.022814844,-0.11545343,-0.014252795,-0.11356945,0.03455054,-0.19520341,-0.12078426,-0.08876313,0.07515496,-0.025148574,-0.08598295,0.11379099,0.17437972,0.020250335,0.12360389,0.08611646,-0.0007228933,0.09630091,-0.04982502,-0.14700875,0.021278612,0.04366564,0.025681857,0.07748092,-0.028614126,-0.03204099,-0.09435486,0.17920025,-0.1377641,-0.16411604,0.032034118,-0.10635427,0.0003566274,0.097429976,-0.054980602,-0.110173486,-0.030702727,0.10367516,0.050299466,-0.030497272,0.011313577,0.01622208,0.12403946,0.0326758,0.13968767,-0.102397084,0.13588041,-0.08127857,0.088623196,0.102689035,0.013497869,0.123218134,-0.028585855,0.0681274,-0.059429333,-0.16284338,-0.06631508,0.11458344,0.13585164,0.11569609,0.034367062,-0.10524722,0.012417916,-0.102164574,-0.1751849,-0.14958715,-0.04452094,0.070786,-0.1257061,0.16269492,0.09096624,0.16885146,0.07771466,0.18406737,0.117854245,0.09158232,0.14311239,0.040655296,-0.0056305067,-0.07467983,0.042898268,0.00091525726,0.049822174,0.072904885,-0.08695368,0.14286964,0.06547595,0.05709046,-0.03271178,-0.06343989,-0.039971508,0.0898879,0.18886882,-0.016271727,-0.020060638,0.029997658,0.08375698,0.025034603,-0.047364566,0.094452545,0.091772094,0.14724712,-0.009571674,0.028328398,-0.03463563,0.013525216,-0.17400202,0.12772249,0.023493305,-0.020758944,-0.15181738,-0.11738147,-0.11814961,-0.2068546,0.07886858,0.06234376,0.04388765,-0.021745397,0.10933089,-0.040521137,-0.041346308,-0.103427276,-0.09870328,-0.032588664,-0.15286219,0.08314312,-0.040282544,0.14086986,0.025324423,-0.14425027,0.18785872,0.13294159,0.09096373,0.13710529,-0.024047771,-0.09718804,0.13348523,0.039289463,-0.025207339,0.07258394,0.07085169,-0.011789475,0.043527063,-0.10877165,-0.0120282695,0.13579738,0.018532835,-0.17712785,-0.08642651,0.011512955,0.11853649,0.03308505,0.091928974,-0.06642554,-0.12993398,-0.08925285,-0.0736342,-0.042038076,-0.015429198,0.14760691,-0.13606393,-0.096105866,0.08776385,0.087010935,-0.09820684,-0.10165012,0.01692602,0.08465789,-0.10569271,0.18012628,-0.14993857,-0.04014811,0.050865673,0.028943503,-0.054950867,-0.04283947,-0.06288821,-0.14526314,0.08089328,0.14310208,0.069322854,0.06499705,-0.046414606,0.1306007,0.051338945,0.05779952,0.050407354,0.055814322,-0.0780021,0.08856383,0.11553398,0.005864521,0.012596832,0.084751,0.13807757,0.07796779,0.08166458,0.043687634,seen,Dacinostat+PCI-34051,Dacinostat,PCI-34051,HDAC inhibitor,HDAC inhibitor,HDAC inhibitor and HDAC inhibitor,seen
Panobinostat+PCI-34051,-0.085379444,0.09271972,0.04595529,-0.010191163,-0.07909677,0.12934281,-0.18861239,0.12873924,0.14845213,0.12537818,-0.1332925,0.07690239,-0.10499901,-0.047236625,0.045295797,0.078393765,0.15673217,-0.07797304,-0.1279428,0.00047191675,-0.10046331,-0.18374558,0.094523475,-0.1769599,-0.055793367,-0.14578845,-0.10515667,-0.055216253,0.08829271,-0.15794745,-0.0008706453,-0.12862228,-0.10266415,-0.08698944,-0.092961304,-0.092058696,0.14516522,-0.030359298,0.012407665,-0.0232957,-0.14903523,0.17870015,-0.088926814,-0.07532477,0.11412494,0.0332157,0.005704584,-0.09392305,0.14800443,0.10822981,0.097990856,0.0563398,0.0677495,-0.12377781,0.059786897,0.044424795,0.18217312,0.07692075,0.083209656,0.08933921,0.18594955,-0.13907787,-0.0905859,-0.20964538,-0.02137139,0.01510906,-0.06261391,-0.11441089,-0.043530922,0.117946245,-0.03448102,0.044022627,-0.103095934,0.018343143,0.03227635,-0.054360688,0.17696086,0.12276209,0.094669916,-0.016924959,-0.08654717,0.061867177,0.05418241,-0.11834973,0.005542612,-0.06152612,-0.03930516,-0.12750787,0.07102379,-0.05352238,0.0023904485,0.13264567,-0.15127863,0.08163674,-0.051246263,0.111290164,-0.08590031,0.19224273,0.118488386,0.09040894,-0.050763965,-0.05009974,-0.19486172,-0.18579184,0.16450958,-0.15671784,0.15291417,-0.18524742,0.0823234,0.032332167,0.17951404,0.04649189,-0.12833732,0.108350016,-0.13534255,-0.055959217,0.04169866,-0.12824146,0.07479411,0.14226057,0.022671858,-0.079735726,0.12591715,-0.18986376,0.09759846,0.027213464,-0.09569081,0.14560232,0.1107603,-0.023674326,-0.086536534,0.013538637,-0.11935177,0.060003553,0.17151783,0.14361683,0.03915252,0.1530608,-0.000981413,-0.110295765,0.14092705,0.100665726,-0.09872517,-0.040665314,-0.02002397,0.016320886,-0.03956675,0.06387544,-0.059526365,0.089036174,0.114039406,0.053273074,0.0016920329,0.1519547,-0.054943778,-0.20400058,-0.010263378,-0.059071727,-0.037273142,0.127037,-0.15491125,0.035531852,0.14939368,0.1755423,-0.053846665,-0.02696323,0.093135916,-0.055896457,0.1335087,0.054020982,-0.087390095,-0.030697769,0.01798943,0.00017939846,0.14294142,0.13516743,0.16279191,0.06397098,0.038899016,-0.08335662,-0.096087866,0.13605921,-0.17808905,-0.07531167,0.08244196,0.17955622,0.09080064,0.023029892,-0.096073195,0.09437595,0.07832198,-0.09528041,-0.001942374,0.16086392,0.009677677,0.08169046,-0.060553797,0.16897817,0.0043140627,0.09385875,-0.06827137,0.14758408,0.086828575,-0.10942708,-0.20053256,-0.085044816,-0.14820647,0.13393053,-0.18023887,-0.083115876,0.12969828,-0.029821876,-0.06272188,-0.020498954,0.08249523,0.14545931,0.102323115,-0.029239025,0.1299298,-0.093892,0.13715631,0.14172474,0.14710723,0.101427495,0.13085982,0.051090408,-0.17188986,0.15615186,0.14880854,0.05135609,-0.14087604,-0.143364,0.15868127,0.018276282,0.12636453,0.073332585,0.03991602,-0.1587007,0.08666084,0.21990424,-0.06811259,-0.010270144,0.098058544,-0.12063868,-0.043515168,0.16297632,0.10081065,0.041989546,-0.035683393,0.1039392,-0.07458299,0.054362062,0.047257334,0.060615435,0.036054138,-0.037450153,-0.15087235,-0.0856827,-0.086247824,-0.051814903,0.06508088,0.08178118,-0.03987298,-0.16821,-0.08880372,0.13515514,0.06746612,0.081744455,-0.1657987,-0.096518084,-0.17486094,-0.058052503,-0.042788297,0.016502636,-0.11271383,0.123505406,-0.05139805,-0.035034034,-0.09984927,0.039904084,0.044755846,-0.06166437,-0.12719874,0.16896169,0.12118256,-0.12480262,-0.14788404,-0.0697385,-0.102484986,0.09030847,0.07386052,-0.13531177,-0.063632935,0.10255827,-0.047554202,-0.1033004,0.13081075,-0.17192318,-0.1104221,0.11972104,0.09031311,-0.12378287,-0.13317804,0.07412585,-0.08047004,-0.029107936,0.20395581,0.1620988,0.15062329,0.0024061073,0.20079714,0.057129156,-0.019449577,-0.056013517,0.15018855,0.05049264,-0.09470985,0.0011981151,-0.15477431,-0.0999495,-0.15297817,-0.04711268,-0.0037258156,0.13981442,-0.03093575,0.06391519,-0.14279953,0.062379673,0.08365058,-0.015139525,0.020980747,-0.060264386,-0.06415515,-0.0065741586,0.11698121,-0.07692209,-0.07246909,-0.036111876,0.005095114,-0.09548681,0.091137186,0.12281597,0.055362403,-0.10356877,-0.12888078,0.06192873,0.19686301,0.19440046,-0.069496624,0.069295906,-0.15561457,-0.070154555,-0.14999051,-0.1681561,-0.14763063,-0.09655072,0.19345231,0.096834436,0.011866484,0.12150514,-0.01886019,-0.09452673,-0.025754087,0.07924967,0.111679465,-0.100875504,0.09259111,-0.086524874,0.16740237,0.16251029,0.040571485,-0.10178797,-0.073011346,0.08354132,-0.12073457,-0.04958731,0.12705748,-0.009219146,-0.09415363,-0.15949996,0.004188438,-0.040620644,0.06415654,0.13404089,-0.1404252,0.111231,0.13588685,0.0463148,-0.12454758,0.015293856,-0.055339903,0.13336709,0.10360538,-0.0924695,0.14899068,-0.086612,-0.11239407,0.009530446,-0.023487289,-0.04241254,0.107339315,0.033013538,0.15394203,0.18608093,0.045273893,-0.13061717,-0.09464838,-0.10165825,0.14655063,0.045145076,-0.108624786,0.107878655,0.12553924,-0.02207864,0.12302003,0.1838773,0.079556264,-0.16699488,0.08668981,0.1337463,0.122064106,0.046203915,0.13249874,0.09488819,-0.091874264,0.13333717,-0.09254218,0.009339333,0.014686622,-0.023059772,-0.06660802,-0.03299895,0.09217732,0.0059648966,-0.03236257,-0.07061768,0.15930976,0.102470495,-0.10900759,-0.11119397,0.10801428,0.008589426,0.106976725,-0.10858036,-0.12849568,-0.05475693,-0.14609374,0.07466972,-0.100051746,0.043123197,-0.00045258322,0.05581296,0.092911184,-0.05441244,-0.09553558,0.15522867,-0.03998968,-0.10822772,-0.015017474,-0.10635928,-0.07232533,0.12249565,-0.14777845,0.011732533,0.032125797,-0.011010661,-0.023042774,0.16680315,0.082125045,0.005547066,0.1288301,0.06195024,0.07954197,0.010348178,0.17340991,0.012693163,-0.17644271,-0.01217614,-0.07744934,0.08464234,0.076644994,0.17467812,0.15594104,-0.13184056,0.018113343,-0.067849375,0.002778039,0.070235945,-0.15844305,-0.09680475,-0.13185056,-0.17388205,-0.11107695,-0.08470806,0.17877448,-0.17468463,0.04323177,-0.11843424,0.189334,-0.015934369,-0.076728046,-0.020040935,-0.026985388,-0.06919709,-0.10189887,-0.09276386,0.049490936,-0.038200878,-0.14388907,-0.007491599,0.036809858,0.11199174,0.049891435,0.049782034,0.0818427,0.019271765,-0.15583909,-0.1264969,-0.089493796,0.08733383,0.12574545,0.087084316,0.1213598,-0.12442994,-0.048023213,0.07669428,0.12885357,0.07163226,-0.011398648,-0.033043493,0.112772696,0.016963847,-0.11434677,-0.078223586,-0.14045113,-0.13318647,0.11394556,-0.044509627,-0.089838184,0.17415544,-0.013749684,-0.03916977,-0.17125595,-0.13331117,-0.0071265907,0.1452197,-0.12330966,-0.028912494,-0.036090575,0.052373488,-0.032153834,-0.18373843,-0.1042384,-0.08103681,0.022385173,-0.1924199,0.1512192,-0.05442104,0.06947703,-0.07969131,0.1323397,0.009912764,-0.025869478,-0.20051424,0.09270887,-0.08870341,0.07255911,0.050892327,-0.13096471,-0.13992198,-0.09318069,0.1353151,0.050155,-0.12596229,-0.072439834,-0.04769151,0.21005784,-0.034913495,-0.07451121,-0.074240565,-0.14558017,0.16085406,-0.094373606,0.014242351,0.16867518,-0.07593456,0.08656854,-0.20476595,0.024450472,-0.073481046,0.030554341,-0.10264741,0.06768333,-0.0841857,0.17966399,0.07775597,0.000103499275,-0.033963542,0.018548861,-0.020396842,-0.16252598,0.13789739,0.04469228,0.02802769,0.10054794,0.10919934,-0.12432038,0.07733745,0.02409788,-0.08453415,-0.14841796,0.003377484,-0.15847465,-0.08088401,-0.08080328,0.08394703,-0.13426755,-0.12752548,-0.067133725,0.17559136,0.21030088,-0.17501801,0.03042923,0.042774472,-0.1637715,-0.1201515,0.0043937042,0.082120694,-0.14970833,-0.15517046,0.11924791,-0.046132974,-0.030007023,0.00979728,0.13083051,0.043851383,0.0021535582,0.056562148,-0.021675231,-0.11312896,-0.11879845,0.025294676,-0.055866998,0.03534569,0.112119526,-0.13694492,-0.09317079,-0.00865333,-0.087324195,-0.1146442,-0.100692116,-0.066784956,-0.01746506,-0.14227775,0.07536282,-0.18483019,-0.05260691,0.11123369,0.15843843,0.13702963,-0.15368511,-0.15214802,-0.06861196,0.02460831,0.08804326,-0.07803758,-0.1502216,-0.06028771,-0.0048856623,-0.11915147,0.030674731,-0.06825647,-0.1482514,-0.021402976,0.1588178,-0.18685958,0.044299915,-0.065978356,-0.048488494,0.14291318,0.101449735,-0.020176627,0.036606874,-0.1012446,0.047189932,0.06968811,-0.013694557,0.115149796,0.19291566,0.092966825,0.01769978,-0.10128879,0.050749354,-0.18052466,0.11660076,0.08652826,-0.112332664,0.06721008,0.005911216,0.030805541,0.05300096,-0.1451178,0.17544492,0.1537647,0.043628667,-0.15772027,-0.12197236,-0.03198644,-0.08332871,0.00013237703,-0.013198922,0.013979355,-0.010759832,-0.11741225,0.06679337,0.1337989,-0.037811868,-0.045702353,0.03655993,0.01472792,0.10118489,-0.055755887,-0.17293759,0.06344255,0.047512718,0.08049954,0.047547698,0.1048377,-0.04681406,0.050697863,0.07864738,-0.12702419,0.11766487,-0.0045922706,0.109786235,-0.069683746,-0.087823905,-0.12295141,0.069276035,0.062415395,-0.03546394,-0.0031410444,0.07975064,0.17039518,-0.03135622,-0.011877349,-0.09776648,-0.18464936,-0.12052973,-0.05937696,0.04202228,-0.025037764,-0.017466616,0.21254598,0.037429005,-0.016768005,0.2166164,0.07754254,-0.112599105,0.15948498,-0.065276526,0.10503979,0.09839473,-0.05866129,-0.10307652,-0.07474355,-0.10334878,-0.10443075,0.11991964,-0.09933762,0.13400672,-0.071025655,0.035648968,-0.064691074,-0.15197457,-0.14338826,-0.188441,0.024051547,0.06901993,-0.0026530484,0.109992504,0.16064382,0.042076148,-0.0957784,-0.008568045,0.031815078,0.05970529,0.096440256,0.030909397,0.18572846,0.012348176,-0.09284633,-0.2007638,-0.013490605,0.05280938,-0.13848288,-0.17108852,0.123716004,-0.1564269,-0.0019395901,-0.051341407,-0.010805901,-0.11236216,0.0021025655,0.026304903,-0.090276085,-0.032474056,-0.10496834,-0.042356875,-0.115556344,0.06913354,0.02258006,-0.021578662,-0.11029513,0.13349417,-0.1583387,0.120675,0.110926405,-0.0077617117,0.14361715,-0.16985713,-0.1508438,-0.15228027,-0.018572751,0.02667306,0.008398828,0.1540163,-0.035401292,0.16658385,0.019015798,-0.009730409,-0.037453216,0.021184249,0.10682738,0.11557816,0.165787,-0.03797178,-0.07165788,0.1089018,-0.11780629,0.15393473,-0.06495729,0.15179257,0.12936668,-0.15421505,-0.05398802,-0.12759945,-0.11537749,-0.12862411,-0.04904635,0.11778115,0.08920654,-0.09412673,0.032253675,0.022297854,-0.07217367,0.19717592,-0.12416772,0.08796384,0.15686299,0.024697185,-0.058805715,0.10838837,0.15142141,-0.08944427,-0.08793872,0.10517453,0.12581162,0.11202762,0.16078548,0.09522505,-0.10641814,0.051218733,-0.16308239,0.13132691,-0.086911,0.1450918,-0.08148906,0.10363826,0.020233653,0.12259688,0.011235373,-0.062036578,0.13371019,0.054300286,0.16723904,0.15650788,0.014915012,0.15997042,-0.121411376,-0.18002759,0.030262604,-0.1528799,-0.080974504,0.040086716,0.113391116,0.0850102,0.13516015,0.17226818,0.07812084,-0.004386599,-0.04710921,-0.0027408467,-0.16639493,-0.16039975,0.022051282,-0.091528006,0.025964338,0.13835771,0.11025439,0.08706534,-0.011666137,-0.07214269,-0.093387544,-0.1900476,-0.16402146,-0.03301141,-0.038845286,0.027043125,0.12664935,0.1410593,-0.09356286,0.04771875,0.17718114,0.055912077,0.20658714,0.09963944,-0.06317675,-0.0238481,-0.08359202,-0.16364413,0.17567171,-0.065121904,-0.07137795,-0.10078707,0.1466622,-0.019863605,-0.15616529,0.070351556,-0.06728287,0.16686255,-0.07897605,-0.11620288,0.0874129,0.19214495,-0.18617246,-0.13696603,-0.046592556,0.101449646,-0.103074074,-0.04357992,-0.037517097,0.012703951,0.0053247684,0.12951607,-0.13255264,0.034427606,0.011627197,-0.04674029,-0.015975254,0.11250454,0.10636012,0.12575501,0.13375014,-0.0069671115,-0.032351203,-0.027769515,-0.13180284,0.04741807,0.0562851,0.11789312,-0.005543745,-0.14900418,-0.18409932,0.090335414,0.06042018,0.1146894,-0.08844211,-0.08973203,0.031128915,-0.13756794,-0.0017890449,-0.20065491,0.008635404,0.09505647,0.13520332,-0.014155267,0.021147454,0.034279734,0.010144574,0.05448916,0.033136033,-0.08143834,0.017911034,-0.14119019,0.09921668,-0.1182037,0.12272603,0.12826806,-0.12724043,-0.19177876,0.08180711,0.11336944,-0.008562869,-0.030820344,0.15920731,-0.09045768,0.1666539,-0.020459771,-0.07448769,0.13795969,0.181924,-0.005525593,-0.07928412,0.072976045,0.04567306,-0.035752513,0.18231863,-0.07218701,0.13816893,0.04646416,-0.11143784,0.17552017,0.16839774,seen,Panobinostat+PCI-34051,Panobinostat,PCI-34051,HDAC inhibitor,HDAC inhibitor,HDAC inhibitor and HDAC inhibitor,seen
Givinostat+Cediranib,0.013281324,0.0036201407,0.0012649768,0.020887492,0.04909634,0.012018215,0.02417102,-0.03977339,-0.045766555,-0.04520188,0.035228167,-0.1283945,0.021665348,0.029584318,-0.008732762,0.07072995,-0.0038871346,0.09693454,0.085087284,-0.020858645,0.023834907,-0.02389385,-0.031173853,0.109409705,-0.057373215,-0.006454744,-0.020053282,-0.008145763,0.12821731,0.06250376,-0.030409385,0.04553449,-0.013810567,0.017121872,-0.037569724,-0.027170394,-0.010461433,0.023983076,-0.0067933938,0.056607768,0.052970104,-0.02424674,-0.031100487,0.035055436,-0.03366086,-0.044415787,-0.026407665,-0.128764,-0.00152819,-0.031871706,0.018192062,-0.09916647,0.016862081,0.08137938,0.033169623,-0.018253077,-0.05678964,-0.06355671,0.054574393,0.06464343,0.017415572,0.05111196,0.0155843,0.05805425,0.025352737,0.058306396,-0.059559725,0.0030943071,-0.053292148,-0.031880237,-0.080225505,-0.027842315,-0.0064025954,0.004840958,0.015490848,0.10223795,0.03425892,-0.041712373,0.06595388,-0.0043494734,-0.015492633,-0.052770816,0.020489812,-0.0062780194,-0.023955056,-0.0046169646,0.007214446,0.009836267,0.047737088,0.03656052,0.002878089,0.019570198,0.022669978,-0.020700403,0.06716599,-0.006908794,-0.0061501665,-0.058513287,-0.05252742,-0.039898083,0.07545763,0.09863639,0.008218158,0.055191208,-0.036671516,0.09083703,-0.13341561,0.004049724,-0.027370922,-0.08002558,-0.031090427,0.06863979,0.04428173,0.012403472,0.014960601,0.01228661,-0.052545317,0.041784026,-0.00677437,-0.10670029,-0.08984192,0.08015308,0.027718885,0.038777474,0.06739704,-0.03186951,0.07399402,0.039081745,-0.08929846,-0.020572234,-0.05912352,0.0009934518,-0.06357806,0.010601582,-0.09587642,-0.014272038,0.016857658,-0.02311309,-0.030816803,0.05580873,0.03918207,0.09007569,-0.078079686,0.015498807,-0.021470215,-0.0012691622,-0.077598184,-0.038168415,0.08831101,-0.043637823,-0.09655223,0.060254306,0.04862199,-0.09652393,-0.021078557,0.007262155,-0.057769284,0.0017136515,0.034645636,0.010933826,0.020045131,0.005555846,-0.029069407,-0.035793,-0.08650725,-0.04097415,0.06037653,0.08042987,0.0016910438,0.05610669,0.086279206,0.0109585915,0.021758452,-0.025124984,-0.017651815,-0.008742693,-0.050924048,-0.0359543,-0.063439876,-0.1157114,0.02337786,0.0011737193,0.039892055,-0.007859156,-0.034335755,-0.0706706,0.103599444,0.052824493,0.013295896,-0.09628363,0.078757435,0.044764575,0.041379888,-0.07000649,-0.09079692,0.044206876,-0.015352705,-0.049005814,-0.00434799,0.043727875,0.03185813,-0.028617008,-0.07360768,0.008831795,-0.023901487,0.04389,0.05022655,0.004238717,0.029747276,0.054968417,-0.07067828,-0.039865386,-0.046205014,-0.004157506,0.023222273,-0.03741321,0.057779346,0.021512166,0.024563178,-0.02105598,-0.039659612,0.0022357965,-0.040447947,-0.012532012,0.010586677,-0.021381833,0.022049632,-0.057393614,-0.007413874,0.07464743,0.052270904,0.011997204,0.0065767514,0.038174715,-0.028574653,0.12844741,-0.03387631,0.024356503,-0.07869,-0.017862689,0.006874185,0.043295857,-0.031705726,0.013091976,0.025517749,0.03979749,-0.0010433402,-0.055563077,0.021994494,0.026940675,0.037071843,-0.025543895,-0.004551968,0.039687954,-0.0019198724,0.04374562,0.05475758,-0.010918436,0.0153594315,-0.039249007,-0.0846851,-0.06266314,0.094945736,0.03565049,0.036910288,-0.039707463,-0.0031691575,-0.020671424,-0.022952508,0.008852976,0.04578797,0.017167393,0.078270875,-0.034514412,0.020648073,-0.020129541,0.088247985,-0.013916358,0.036052868,0.058842402,0.0091734845,0.0857833,0.0587025,0.001789545,-0.032570045,-0.035704322,0.041531008,-0.024939245,0.022585282,-0.034862403,-0.07745221,-0.034113757,-0.04506081,-0.03963343,-0.08620519,0.0321538,-0.016271958,0.043335956,0.038064383,0.021234524,-0.086541906,0.00060083903,0.01726494,-0.07626348,0.031758137,-0.0388685,-0.0029326545,-0.08593752,0.018444402,-0.07716588,-0.048166033,-0.056365885,0.03679992,0.07496861,-0.04589037,-0.013463114,-0.004965918,0.015501371,0.011390721,-0.036092672,0.07677088,0.00010486529,0.029904883,0.042676896,0.05363883,-0.023892142,-0.010527587,0.018255642,-0.030049827,0.025750317,-0.066945806,-0.016988045,-0.018979086,0.067921676,-0.0035903645,0.03355506,-0.0512926,0.0045065233,0.008436308,0.058593575,-0.061810527,0.070020296,0.02739645,0.04394793,-0.044593938,0.010871386,-0.0020068525,-0.03219411,0.011114738,0.08474935,-0.038187057,-0.06737036,0.10571823,0.07476609,0.0043823114,0.008046506,-0.020322356,0.0026507322,0.0039460734,-0.07539732,0.037657037,0.01050293,0.07783487,0.0283632,-0.07029155,0.09087017,0.043045755,-0.03271334,-0.020489888,-0.031546865,-0.046108626,0.04068578,0.073095605,0.008760933,-0.012583224,0.09305876,-0.05594694,-0.03261367,-0.020684129,0.028602533,-0.09196962,0.032594644,0.008972679,-0.0894013,0.002088923,-0.12014107,-0.016391613,-0.1171685,-0.0061481283,0.038287938,0.06400576,-0.015310254,-0.040328883,0.008991404,-0.07623493,0.00028037187,0.06782866,-0.05219172,0.023470957,-0.0028905217,-0.07608288,0.040495083,-0.020644179,-0.0134555,0.043642797,0.009557389,0.0838551,0.025491385,0.0040705996,0.008451001,0.052250765,-0.03368208,0.059591547,-0.029057294,-0.060904123,-0.037407003,-0.08153185,0.043768857,-0.017890863,-0.10625136,0.0052089524,-0.07660558,0.07643923,0.017299093,0.0626838,-0.016597245,0.04000573,-0.042242654,-0.028869912,0.022719322,0.023578314,0.019399608,-0.015361985,0.06791604,0.08998293,0.052203663,-0.04095626,0.055627063,-0.015273382,-0.026580008,-0.02934684,0.01960509,0.073766835,0.025338577,-0.0059110206,0.016968101,0.0067581525,-0.0435946,0.03597233,-0.050448716,-0.03332304,0.018767478,-0.046160426,0.04560469,-0.033628456,-0.059087418,0.03026867,0.026669389,0.0023250713,0.053577468,0.05579695,0.011520081,0.031018715,0.06129366,-0.0031359612,0.053031385,-0.00528135,-0.035771456,-0.016449405,-0.025755726,-0.057554174,-0.009653585,-0.064894214,-0.003069487,-0.044590473,-0.0306921,0.032881644,0.09049443,0.012884326,-0.060076937,0.032177433,-0.04160723,-0.051136404,0.02088015,0.043080255,0.016685518,0.040541984,-0.04310772,0.018862486,-0.020171542,0.106056854,0.09456188,0.022368496,0.11126843,-0.02038535,-0.027372617,-0.108463764,0.03729752,-0.05311786,-0.011988552,0.025188306,-0.0034944536,0.06188217,-0.017077696,0.012390801,-0.06773025,-0.03762935,-0.03824645,0.022017308,0.08779316,-0.024876468,-0.0065441644,0.011993798,-0.0590137,-0.0604422,0.04781282,0.05940461,-0.0097969165,0.05581248,-0.038375735,0.051840812,0.010198527,0.01971229,0.05195676,0.09369799,-0.05178939,-0.02616924,0.017063532,0.010897008,0.07470486,-0.019886393,-0.039185822,-0.026337303,0.103704005,0.08503316,0.0647463,0.1123548,-0.050424322,-0.028299933,-0.009342978,0.025298523,-0.05892282,0.0509555,0.07854124,0.06944157,0.016601088,0.04943761,0.08796705,0.054946065,0.034700546,0.03458919,0.002140555,-0.08286171,0.020793412,-0.07249721,0.058314994,-0.051188935,0.035622336,0.0046097627,0.010683237,-0.03583637,-0.02205979,-0.02042088,0.033248864,-0.0163632,0.0416023,-0.09082996,-0.06560841,0.027583852,0.050532978,-0.013315124,0.028120726,0.052523937,0.067309305,-0.0077315294,0.02501149,-0.0077264938,-0.053698316,0.09615687,-0.011750909,0.056978274,0.00517791,-0.09108031,0.009840339,-0.02240732,0.024367465,-0.04760317,-0.01846238,0.047308892,0.0059670373,-0.041480124,0.05211538,-0.05163909,0.020218715,0.017762419,0.0428538,-0.050561022,-0.04475915,0.012731819,0.036357936,-0.032288913,-0.0019915611,0.0003807298,0.037565675,0.03892008,0.049087785,0.03887798,0.007551868,-0.0019781082,-0.0113526555,0.078245364,0.026563015,0.04880694,0.104230575,0.11557957,-0.026073022,0.06027373,0.014543351,0.05446653,-0.040665288,-0.025075007,0.02977036,-0.11315268,0.016596416,-0.01729681,0.06321158,0.015211411,-0.07616877,0.0035260948,0.07297029,-0.011188128,0.032794006,-0.0071591428,-0.0064072674,0.062587686,-0.021089653,0.026143732,-0.016670393,0.062062923,0.0837746,-0.084047355,-0.0011026992,0.022098422,-0.023392012,0.02651241,0.03083568,0.012048028,-0.030918064,0.028072067,0.017854761,-0.014252159,0.02126497,-0.054617144,0.028312022,0.037934083,0.04618112,0.028192947,0.0055504832,0.009161996,-0.029822316,0.033548146,-0.014501163,0.0077622114,-0.03852123,-0.03807327,0.011783127,0.026319148,0.07033508,0.04485236,-0.04410691,0.060467135,0.024189392,0.067865126,0.0074059474,-0.028406603,0.032626852,0.060927905,0.055562977,0.00935627,0.038226277,0.0014571827,-0.03733434,-0.064997226,-0.01911923,0.009198932,0.03237378,0.091878355,-0.03636028,-0.06205773,-0.011184832,-0.04783812,0.016756209,-0.040373895,0.019534616,-0.05762762,0.048894353,0.009377548,0.032130916,0.030414008,0.021947337,-0.018401073,0.0042945044,-0.08546311,-0.0009377828,-0.0031250645,0.028141951,0.0011010871,-0.010691219,0.07509619,-0.08382479,0.04060082,0.01576412,-0.022150548,0.08446366,0.083138235,0.051402524,0.075198084,-0.08643213,-0.052750062,-0.009236839,-0.023967607,0.003531664,0.049020585,0.021504382,-0.019043176,-0.058949854,0.09384176,0.014402071,0.12359044,-0.008354733,-0.027441226,-0.0051201032,-0.017187497,-0.052472197,0.020254944,-0.019107295,-0.014514269,0.030720005,-0.0055962345,-0.06285648,0.014569916,-0.003952832,0.06873548,-0.014177665,0.022941398,0.03433039,-0.028337242,0.093506485,-0.016686765,-0.010527209,0.06921443,-0.0062810103,-0.07511672,-0.053010203,-0.06254041,-0.055707835,-0.061552357,0.035127237,-0.090336695,-0.036442455,-0.069148175,0.0074905134,-0.0011817273,-0.058445685,0.09976012,0.003015638,0.024285965,-0.006615631,0.0023733024,0.03051724,-0.027400618,0.056389302,0.027466739,-0.042653993,0.053899262,-0.0016530259,0.003609106,-0.0017163889,0.12159177,0.0686235,-0.09995626,0.025895923,0.02817327,-0.039364267,-0.025849089,-0.02749078,0.018146453,-0.04729319,-0.011570841,-0.021306284,0.053487815,0.045420077,-0.002679606,-0.040095393,-0.0070074205,0.011080942,-0.0038114255,0.01821766,0.064763844,-0.11591556,0.039855976,-0.029807813,-0.050586436,-0.05770884,0.057769846,0.03344297,-0.08309263,0.02291852,-0.044002343,0.036966775,-0.022735761,-0.029656215,0.02128385,0.056122877,-0.021505633,-0.002922036,-0.02016041,0.011438463,0.057666887,-0.08881189,0.069026306,0.024482634,0.040244017,0.046681043,-0.042901512,0.009097553,-0.027171358,-0.017820124,-0.09806633,-0.047457404,-0.027331144,0.061871484,-0.038170494,0.08828496,-0.044399627,-0.02928745,-0.036120646,0.0005363673,-0.042213704,0.10540145,-0.013710495,-0.06402613,-0.057398815,0.023663,0.059794467,0.030649595,0.019104438,0.14496428,0.11356241,-0.08674461,-0.03573092,-0.007323672,0.011169914,0.029106349,0.052359577,-0.057834502,-0.026753206,-0.0075918036,0.003012154,-0.020063302,-0.036158144,0.061859515,-0.06656525,-0.012053559,0.08995109,-0.009720979,-0.11267914,-0.028737871,-0.006743972,-0.029284034,-0.025875384,0.07949349,0.016992068,0.048684306,0.061021674,0.011666727,-0.091122776,0.0046217088,-0.0335362,-0.010878989,-0.0771841,0.0016625891,-0.056233946,-0.031822667,-0.04508604,-0.039084304,-0.041837446,-0.027887646,-0.0485798,0.062241457,0.0033703079,-0.10216015,0.07754641,0.041601427,0.08295261,-0.0666936,0.05219918,-0.02093319,-0.037614178,0.004442842,0.037712883,-0.09256433,0.017397372,0.06821638,0.11041033,-0.029905692,0.066344485,-0.08811881,-0.016879579,-0.039938,-0.022604126,-0.034748916,-0.020050183,-0.0009312222,-0.021815594,0.021567333,0.008706763,0.06733013,-0.059254054,0.005563583,-0.03408671,-0.1270845,-0.0399979,-0.03265626,0.036460567,-0.044328995,-0.052158605,-0.067317046,-0.11988199,0.0061619375,0.055178326,-0.05588363,-0.05306323,-0.015950976,-0.0647756,-0.034851663,0.08584295,0.043137677,0.012081319,-0.034597047,-0.06204738,0.02511175,-0.07776763,0.002731048,-0.009362146,0.014115151,0.0040114513,0.044439062,0.10141349,-0.05047037,0.032083783,0.0441223,-0.039924107,0.0041133906,0.00785063,0.017003078,0.028410887,0.09511494,0.10488803,-0.05894484,-0.0028925585,0.045966342,-0.049447156,-0.04845422,0.022552721,0.026539119,0.05773295,0.0063829552,0.002779403,0.03614749,-0.008561417,0.034912907,0.08323516,0.022993946,-0.07585156,0.050300106,-0.00219775,0.1278752,0.05177489,-0.08184895,0.014871381,0.019373663,0.02583259,0.14252013,-0.09876562,0.01869914,-0.00572009,0.03860618,-0.085701555,-0.039774537,0.057758655,-0.07828607,0.08079889,-0.085563004,0.04061852,-0.010221584,0.009248238,-0.07083439,-0.011358455,0.059201524,0.028716305,-0.09454803,-0.06555552,-0.10376798,-0.022011494,0.048008393,0.043031137,-0.06906619,0.06783882,-0.06663337,-0.0363719,-0.07551786,-0.08284313,0.07115458,-0.11355285,0.088467106,-0.053721875,-0.034450877,-0.07172506,-0.040084016,0.03548335,0.09798415,-0.016091429,0.052631397,seen,Givinostat+Cediranib,Givinostat,Cediranib,HDAC inhibitor,EGFR inhibitor,HDAC inhibitor and EGFR inhibitor,seen
Dacinostat+Danusertib,-0.06280429,0.083229624,0.17725863,-0.054953277,0.047358252,-0.07888357,-0.03342886,0.08724506,0.08788438,-0.036225956,0.07838225,-0.07257533,-0.18285292,0.10139413,0.13304713,0.12773842,-0.033971027,0.07444924,-0.014028065,0.117603764,0.085515924,-0.11164942,-0.027010623,0.0019876112,0.029269837,-0.09571157,0.096431345,0.092314206,-0.0034394413,-0.023548529,-0.061417907,0.066368446,-0.16600053,-0.18907996,0.06630929,0.02786075,0.116132304,-0.0924882,-0.13907166,-0.012032844,-0.010233834,0.014566323,0.13611837,0.103226125,-0.04721278,-0.10963471,0.16897383,0.09377517,-0.07892289,-0.08259235,0.053194005,-0.044783525,0.07339032,-0.056802362,0.12789834,-0.1086236,0.056784328,0.056645807,-0.09210617,-0.06968059,0.1447832,-0.06080253,-0.098680295,-0.07256448,-0.19155213,-0.13160601,0.17609079,-0.010501982,0.039583564,0.088295504,0.05081157,0.18460691,0.0952106,0.21874067,-0.042774033,-0.005573819,-0.029496597,-0.04425792,-0.07642496,-0.074460596,-0.19885315,0.0923326,0.16103156,0.008660596,0.12796053,-0.0747107,-0.059397545,-0.014850822,0.14075635,0.083989516,-0.024724562,0.12765057,-0.19527368,-0.033032954,0.12329223,0.09248442,0.043407284,0.12498212,0.09334599,0.0997067,-0.15741299,-0.02718276,-0.045439072,-0.00074955286,0.014412052,0.04349432,0.03625087,-0.004427355,-0.033896476,0.06349657,0.06736489,-0.12281602,-0.05942221,0.00602693,-0.06419326,-0.1633713,-0.035054848,0.056273386,-0.09239939,-0.04332814,0.10962339,0.09386253,0.078898266,-0.09049972,-0.10588935,0.03923734,0.025224881,-0.003299727,0.07262117,0.18278793,0.0869967,-0.021766799,0.06518555,0.14431341,0.018517723,0.09831763,-0.10996355,0.07487833,-0.21450971,0.022396553,0.0051574367,-0.12597714,-0.09913695,0.0994973,-0.056825276,-0.11428698,0.09706623,0.1710055,-0.09262018,0.15658571,-0.03995627,0.02399603,-0.14794122,0.04763159,-0.023743901,-0.014746958,0.14746526,-0.010329162,0.118620224,0.17844565,-0.120088786,0.0887368,0.040337753,0.07927752,0.18817836,0.22699176,-0.06726894,-0.15686989,-0.08627375,-0.090522945,-0.10138399,-0.11361606,0.019241659,0.15807796,0.074798405,0.06264204,0.06780254,0.20253941,0.06667076,0.10002987,-0.10077923,0.07042184,-0.111270316,0.06059248,0.07342246,0.062135477,0.0020361557,0.019520165,-0.013629625,-0.018080264,-0.0077777402,-0.057416335,0.14150886,0.0039037324,-0.04812883,0.10756436,-0.07779566,-0.016280819,0.13983992,-0.110567324,0.05772106,-0.06493285,0.16453838,0.055874497,0.040521257,0.005689275,0.045135014,-0.02735174,0.014293618,0.09063597,0.023993537,-0.17511807,0.14348862,0.13213968,0.034085207,0.008680032,-0.15916777,-0.101679035,0.09121448,-0.002947906,0.15232489,0.026092045,-0.08974752,-0.06742034,0.07044461,0.15522316,-0.14858575,0.0013157289,0.11455244,0.06237189,-0.11939914,-0.03353896,0.077454485,0.10108689,-0.06242995,-0.15331358,-0.12012017,-0.03220413,-0.07432506,0.088558555,0.033216543,0.12111819,0.14286058,0.07088286,0.045323323,0.08878148,0.17195128,0.22267927,0.085214026,-0.07375635,0.08855447,0.15843743,0.16204523,-0.14064468,0.12221306,-0.20059834,-0.037702966,0.05556799,0.06496217,-0.04307331,-0.1094705,-0.029952275,0.03150574,-0.11415963,0.056413244,0.042047877,0.16392578,0.0988268,-0.114396535,-0.10667728,0.040508494,-0.1849488,0.09212663,-0.028843096,-0.16486707,-0.008335517,-0.11948807,0.15269552,-0.028138423,0.07167259,-0.12695208,-0.15705428,0.055487845,0.0187094,0.018620424,0.1292471,0.055518683,0.19001426,-0.039397724,0.13642275,-0.024182905,0.03836986,-0.194036,0.12716354,0.21448904,0.12134595,-0.046245873,0.0026220123,-0.0641908,0.16868436,-0.026560936,-0.0014711088,0.06173779,0.015296573,-0.07321112,-0.023698308,0.06050446,0.07039671,0.077507704,0.057877637,0.07190853,0.21697158,-0.023851572,-0.0056995153,0.047316644,0.020324219,-0.09840019,-0.05766848,-0.11797343,0.08277467,-0.00016635878,-0.19734001,-0.0737814,0.053247754,-0.042449735,0.15975721,-0.01534426,-0.12580721,-0.1094279,0.105879806,-0.16916604,0.14718054,-0.15358293,-0.058958754,-0.020710409,-0.15564358,-0.001095503,0.01271677,0.11711982,0.089829266,-0.09153397,0.047711305,-0.16040373,-0.039817814,0.02012391,-0.12580408,0.032890152,0.03436956,-0.05647579,0.030567335,-0.11051186,0.12886901,-0.015305959,-0.030357234,-0.09860304,0.12427131,0.02230815,0.15031625,-0.1326652,0.024977878,0.17876627,0.09542631,-0.15172909,-0.100189984,0.13292429,-0.07155339,-0.1274204,0.099877134,0.08408703,0.11478504,0.14907059,0.052184694,0.07145847,0.20394936,-0.057415724,-0.050985575,0.03603788,0.10994937,-0.13844298,-0.016016072,-0.06361773,-0.16859592,-0.14978315,0.053116914,-0.15079714,0.036861878,0.046119686,0.13121966,-0.15103962,-0.13507812,-0.026905831,0.10576306,-0.103026286,-0.06296751,-0.06406122,-0.13806675,-0.15133807,0.060462084,-0.120834954,0.021717366,0.0054113986,0.13410065,0.13718498,0.027077831,0.16961919,0.054046307,0.082708485,0.07623114,0.025404114,0.13028128,0.050560176,-0.043891184,-0.023659537,-0.06696813,-0.04017753,0.08285507,-0.005629044,-0.017404858,-0.094569586,0.02524638,0.13420658,-0.14576109,-0.0020528303,0.15155606,0.045560934,-0.07000994,-0.039236523,-0.11173247,-0.037455954,-0.1758618,-0.17636204,0.09422203,0.20685822,-0.15842673,0.10080144,0.05328934,0.009213149,-0.12975709,0.061445978,0.057102952,0.024196258,0.09521899,-0.07488525,0.029506532,-0.17358674,0.086840026,-0.03315839,0.08529728,0.11014236,-0.16293083,0.13317718,0.12916327,-0.03924117,0.10816364,-0.013181004,0.0019716024,0.03798115,0.10941402,-0.0048911497,0.06446651,-0.13186087,0.049403206,-0.0264799,-0.0074603045,0.16355698,0.13019659,0.070075646,0.03956974,-0.07204121,-0.11765733,0.08085022,0.06825401,0.07805244,0.19845648,0.10786194,-0.09566753,-0.012150919,0.10457916,-0.07915419,-0.04906519,0.06871654,0.13314664,0.06379251,-0.11150777,-0.18502921,-0.13680921,0.10941008,0.13885158,-0.10616194,0.069980495,-0.062887534,-0.013068576,-0.20265971,0.05693713,0.005056265,-0.10485402,0.05721612,0.0063732835,0.122948036,0.21162386,0.017672641,-0.14125226,0.08331753,0.09372318,0.025134893,0.14560342,-0.077088974,-0.19061752,0.038077235,0.00866293,-0.099942416,0.00905398,0.09574732,0.19801114,-0.092721455,-0.09312959,-0.13919558,-0.12933762,-0.089714944,0.037691575,-0.07936225,-0.041929275,0.09911933,-0.0074510938,-0.076795824,-0.086945355,0.104403004,-0.016112773,-0.12826706,0.030241631,0.14851287,-0.021166436,0.013060499,0.09410961,0.042484596,0.047508944,-0.14828469,0.13484257,-0.03651489,-0.021445863,-0.07993114,0.1329203,-0.0318114,0.013837991,0.08455372,-0.07309422,0.07903574,-0.05559188,0.037827257,-0.13954473,-0.11256706,-0.08869966,0.14752422,0.10572531,0.044550117,-0.051964596,0.17568372,0.051398657,-0.12235622,-0.19439973,0.10799478,-0.15621851,0.13618125,-0.015408598,-0.044301268,-0.13766913,0.01088675,0.077278055,-0.06105466,-0.10702328,0.100585856,-0.023843903,-0.13576871,-0.17085516,0.17772697,0.1441955,0.02009481,0.21731468,0.08550759,0.09162327,0.067762904,0.12076548,-0.0032634838,-0.1248769,0.14216486,-0.09903796,0.1546362,-0.05002018,0.14521362,0.10597035,-0.13097072,-0.07449379,-0.07251666,-0.2022429,0.027615653,0.11357344,-0.14914937,0.060462553,0.20206176,0.14739819,-0.031414952,0.040630627,0.13636205,0.14948098,0.08664902,-0.14496113,0.050980754,-0.13721865,-0.15449026,0.10673968,0.0038823942,0.07396902,-0.006032997,0.021109965,0.0627135,0.10071732,-0.065800875,-0.1383482,-0.14803451,0.0059284163,0.03603045,-0.07795238,0.07586836,-0.02596968,-0.08116862,0.024945337,0.14353995,-0.051287,-0.11073372,0.040407736,0.042829398,0.050839994,-0.12807761,0.11486289,-0.095360436,0.05407966,-0.1907351,0.18949662,-0.10529229,-0.11611283,0.010792742,-0.13875933,0.019187657,-0.09732414,0.00092740345,-0.13167681,-0.056741923,0.12197848,0.05022106,0.029045526,-0.079173766,-0.0983627,0.12696005,-0.14524654,-0.055023607,0.011895113,-0.032668576,-0.06894461,0.0055459086,0.09390758,-0.04047387,-0.032129418,-0.07603232,-0.13732633,-0.09071753,0.0066281985,-0.08337466,0.02141811,-0.11477188,-0.19572845,-0.031964056,-0.082236335,-0.09932693,-0.14383964,0.103420466,-0.063074745,-0.09369935,-0.2130775,0.016295657,0.0021647057,-0.06646362,0.1833988,0.14594579,0.039144643,0.17028478,-0.055571478,0.080040574,0.031537615,0.01324772,-0.011440996,-0.06257235,0.075370125,-0.072861895,-0.01908743,0.005487515,-0.0886618,0.043184124,-0.10197761,0.033121087,0.12126266,-0.13881779,0.020177148,0.10393334,0.047838304,0.055394813,-0.055371117,-0.07386429,0.104395404,0.04058165,-0.05715825,0.1012333,-0.16688299,0.0010354262,0.011868551,-0.06561526,-0.08197294,0.017675024,-0.013385416,0.20313297,0.15698797,-0.121213615,-0.17621513,-0.10406194,0.14315476,-0.13404334,-0.0708089,-0.13417026,-0.10499186,-0.01369233,0.1602206,-0.08115113,-0.03973519,0.17247744,-0.08864903,-0.061184507,0.13428845,0.1110404,0.08099609,0.067563556,-0.07528563,0.018110264,0.09875282,-0.1354746,0.0707448,0.17220317,0.14607425,0.054990757,-0.08117789,0.07332562,-0.17996609,0.1212976,-0.15528776,-0.09439342,0.06987947,-0.1345958,0.08376904,0.094157934,-0.089169204,0.033789694,0.055268735,0.13916138,0.19137031,-0.11878974,0.0052557723,-0.08272869,0.08741924,-0.102666914,-0.12952304,0.07612279,0.075103745,0.023744313,0.05080427,0.034191705,-0.119763464,-0.024641342,-0.08872097,-0.15066643,-0.076443255,-0.024695724,-0.140796,0.006415815,0.029378083,0.10470094,-0.11008581,-0.119971596,-0.041304518,-0.049710404,-0.06620863,-0.14086063,0.07836312,-0.02350548,0.08006063,0.00417718,0.19149719,0.13762568,-0.17252414,-0.11386803,-0.08438043,-0.036444362,-0.030272212,0.03800694,0.090035506,-0.003623785,-0.093731605,0.1546286,0.011272152,-0.035585318,-0.18692671,-0.059759606,-0.20803149,0.13433038,0.14748237,0.024755556,0.039735403,0.10111446,0.075451426,-0.08092078,-0.10560491,0.0822487,-0.034062605,-0.05792389,-0.036985878,-0.04633523,0.10436396,-0.09685649,-0.15074283,-0.038591065,-0.10640909,0.028166309,-0.114198335,0.0522146,-0.18934365,-0.16239178,-0.11597411,0.033861134,-0.05065618,-0.050240554,0.13267392,0.1512597,-0.06429718,0.13021193,0.15649319,-0.054791346,0.08496071,-0.0510169,-0.17725883,0.02767692,0.01665006,0.014375382,0.13807674,0.047186255,-0.051582072,-0.16022843,0.18875113,-0.17270607,-0.16684042,-0.00562934,-0.1207933,0.016579913,0.059986643,-0.025579482,-0.12981595,-0.03112184,0.057353776,-0.043562748,-0.11999734,0.0117867105,-0.0012500498,0.112302184,0.026479151,0.20803122,-0.06137981,0.20436104,-0.0011934263,0.07361649,0.15149415,0.081617445,0.09894639,0.090028636,0.010777146,-0.024726754,-0.13925436,-0.072705396,0.19618641,0.12679489,0.14336894,0.014553864,-0.16535778,-0.026364934,-0.15793961,-0.1299421,-0.12475277,-0.11076393,0.08892166,-0.15338558,0.16923302,0.0816077,0.13356769,0.05701555,0.13698386,0.09617824,0.108907886,0.11408303,0.075666755,-0.06763129,-0.06466872,0.030843912,0.000119853765,0.057985008,0.08007765,-0.07344319,0.118436,0.0785571,0.124492735,0.00726498,-0.09426871,-0.055680137,0.09385915,0.15723234,-0.056864586,-0.039331835,0.08782397,0.17624632,0.033145286,-0.046628952,0.116235726,0.17254186,0.14503337,0.016121915,0.04740314,-0.0918328,0.05023136,-0.11782788,0.11118451,0.06005398,-0.023651013,-0.13879722,-0.11510023,-0.15381615,-0.07941516,0.11103457,0.05372876,0.06233013,-0.06168404,0.08392472,-0.019945376,-0.06526248,-0.14126626,-0.11231597,0.038876023,-0.15980771,0.12585592,-0.115011536,0.14589466,-0.017152175,-0.11554151,0.15805736,0.14337714,0.090299726,0.15855764,-0.06818177,-0.10536943,0.15797533,0.014720185,-0.042213954,0.07519513,0.093103275,0.04173024,0.09790726,-0.15238796,-0.090366244,0.14369823,0.00027125143,-0.11652744,-0.07496421,-0.10607782,0.060674913,0.05379221,0.026679114,-0.10826995,-0.14439788,-0.121394634,-0.032607187,-0.06443448,0.033916347,0.116931014,-0.16263065,-0.16429393,0.114286646,0.13036932,-0.14078511,-0.08206008,-0.030303225,0.15023716,-0.1154835,0.16995406,-0.17472029,-0.031181497,0.060128607,-5.121359e-05,-0.04912762,0.02554265,-0.064881004,-0.043382935,0.13067418,0.1334311,0.1034615,0.036238845,-0.08125552,0.07921006,0.09599818,0.035294756,0.014912254,0.07466249,-0.028615808,0.078484535,0.15013078,0.0026161275,0.030590093,0.12764607,0.1356748,0.07904899,0.12011208,-0.037608463,seen,Dacinostat+Danusertib,Dacinostat,Danusertib,HDAC inhibitor,Cell cycle regulation,HDAC inhibitor and Cell cycle regulation,seen
Panobinostat+Dasatinib,-0.076004915,-0.1333642,0.07768849,-0.10908991,-0.08031851,0.07425184,-0.17056769,0.12683578,0.051738717,0.030809488,-0.10401532,0.18793456,-0.13038835,0.058526844,0.15730909,-0.07454366,0.017874192,-0.114603594,-0.06541587,-0.14461404,-0.10584434,-0.08999216,0.15192787,-0.14959975,-0.042228278,-0.04516062,0.013138973,-0.2168011,-0.0059349127,-0.25695086,0.14530514,-0.14052625,-0.12165141,0.0015173693,-0.06878177,0.090295464,0.14632203,-0.15050286,0.16141376,0.06585497,-0.17086284,0.15529332,-0.09531194,-0.1452294,0.14451599,0.19951032,0.11628339,-0.0016114472,0.11754957,0.11964485,0.14143369,0.15296468,-0.09330621,-0.23341928,0.042904295,0.049927935,0.18560034,-0.006452579,-0.066683225,-0.09402017,0.15844883,-0.2128403,-0.04539581,-0.19731191,-0.129258,0.08202377,-0.08826411,-0.17468585,0.1256639,-0.021629708,0.13051845,-0.10923687,-0.098909974,0.025060762,0.14898351,-0.12558053,0.16179474,0.16715387,-0.05949992,0.16238552,0.036521878,0.1690304,0.14593951,-0.051627215,0.13631514,0.0448814,-0.04056556,-0.08970215,0.037797764,0.04743842,-0.08474424,0.06932618,-0.11192843,0.115833566,-0.07562333,0.22933795,-0.124198176,0.10694237,0.17217924,0.1104495,-0.053569473,-0.07969861,-0.20684044,-0.08814502,0.17697039,-0.19616719,0.09758564,-0.14765838,0.051410273,0.10445566,0.1012533,-0.039114498,-0.17889617,0.18209788,-0.10177166,-0.10389754,0.16260386,-0.12645756,0.05786956,0.19383572,0.14336196,-0.14731742,0.07059807,-0.04208889,0.12788889,0.04983551,-0.074663326,0.07796002,0.19961925,-0.023043795,0.026073178,0.20431252,-0.06388701,0.0011138305,0.17584154,0.07276293,0.060126342,0.18489452,-0.08510909,-0.16289769,0.00028639613,-0.080655105,0.06488642,-0.056742035,0.00522976,-0.14567834,0.0620533,0.14029415,0.064009495,0.1333176,0.14756158,0.05615038,-0.03023676,0.15991558,0.07452354,-0.092135586,0.08903454,-0.18603952,-0.023659015,0.0026083249,-0.17822626,0.004655607,0.15027495,0.09543023,-0.06575009,0.04731125,-0.10743714,-0.10891902,0.010026973,-0.089098856,-0.13865614,-0.11576021,-0.028992042,-0.08556117,0.07441869,0.14777642,0.1316529,0.0714466,0.052960847,0.027941415,-0.04162569,0.13636608,-0.07696303,-0.064926334,0.07277671,0.03213621,0.029827882,-0.18093,0.0377653,0.025199037,-0.15670462,-0.1833962,-0.07245666,0.16264771,0.14111957,0.03570982,-0.13959986,0.17015733,-0.0052301385,-0.011173119,-0.0800426,0.13321674,0.10583043,-0.13056342,-0.14528994,-0.2042251,-0.11841153,0.07050621,-0.11054483,-0.14225025,0.19827282,0.08324423,-0.010371957,-0.09587673,-0.074055165,0.08974196,0.01304773,0.016730104,0.14151089,0.09546042,0.1377303,0.006685678,0.114334635,-0.0931568,0.10640406,-0.058663495,-0.13640234,0.20480877,0.15666397,0.1326187,-0.12643267,-0.18352689,0.1154311,-0.007757157,0.18695901,0.04293856,-0.03066673,-0.033263046,0.12614104,0.15596329,-0.111316286,-0.107748345,0.067486145,-0.1539332,0.0020487632,0.06331665,0.16849513,0.11030841,-0.05486346,0.11075764,-0.12825383,-0.082356915,-0.013436316,-0.073033184,-0.06893405,-0.084600404,-0.18741752,-0.020359468,-0.1619997,-0.12028486,0.17387906,0.04009775,-0.021890111,-0.1765481,-0.055297058,0.06263295,0.060408607,0.19912058,-0.07532458,-0.031937376,-0.12997517,-0.09599952,0.0290885,0.15784901,-0.012487128,0.13181354,-0.21055931,0.04352784,-0.1828275,-0.11545029,-0.021240517,0.0815349,-0.18517457,0.14123978,0.05163172,-0.07180183,-0.11183696,-0.054538026,-0.16690363,0.11022706,0.018097788,-0.05852249,0.01075172,0.20071948,0.008757604,-0.10850906,0.15570866,-0.103580065,-0.12635241,-0.05337817,0.12707333,-0.16035615,-0.11545775,0.15321982,-0.0780703,0.07047727,0.19500887,0.13221316,0.090826795,0.16898395,0.15656735,0.13362494,-0.03607157,-0.04323857,0.06999661,-0.070537634,-0.09972042,-0.08319598,-0.167105,-0.04329629,-0.13033746,0.07741673,-0.07804118,0.047956403,-0.18706366,0.071111344,-0.21441504,0.087453924,0.075334646,-0.01858282,0.111501366,-0.01971505,-0.014663415,-0.2035197,0.11348222,-0.024600916,-0.18678527,-0.028209496,0.14490788,-0.01330953,0.12703529,0.031000545,0.022157865,0.0154580325,-0.13581051,0.0055723884,0.15485264,0.19838217,-0.12850943,-0.049004983,-0.07184124,0.0070290044,-0.16177538,-0.14836751,-0.12716283,-0.050131727,0.05160805,0.11814003,0.038402185,0.11725184,0.0030584354,-0.18387003,-0.07119302,0.1355843,0.09717536,-0.10343072,0.09209432,-0.113385655,0.08550656,0.17080206,0.15717047,-0.09488252,-0.19300759,0.05228434,-0.2265729,-0.16716509,0.1389232,0.009508749,-0.08642771,-0.16081612,0.14676692,-0.00019626087,0.013930925,0.092769854,-0.061583754,0.14123222,0.103159286,0.02556771,-0.0809172,-0.12929475,0.108804196,0.15956198,0.029692274,-0.10271996,0.14989163,-0.052756824,-0.12563723,0.16269487,-0.12166414,0.1112061,-0.04452996,0.04502561,0.043588907,0.18555139,0.013613975,-0.12135309,-0.08600395,-0.1432695,0.09293537,0.094890654,-0.119056694,0.17165406,-0.0065922714,0.15890965,0.12970282,0.074826375,0.18805955,-0.06676416,0.1233976,0.16167831,0.0060153585,0.09862006,-0.052470878,-0.012573459,-0.17145215,0.08597469,-0.11032362,0.068833806,0.037145987,0.11138738,-0.00018320908,-0.1376631,0.10621265,0.05885845,-0.0666675,-0.2065655,0.21563679,0.11655476,0.014823037,-0.18544748,-0.026060296,-0.01783736,-0.015105969,-0.016942667,-0.08681907,-0.18999891,-0.13677624,0.1462217,-0.07534052,0.065786995,0.049806803,-0.06670271,0.18301412,-0.15579014,-0.076605625,0.17639479,0.12032716,-0.18939236,-0.14488651,-0.09586763,-0.11208735,0.15033945,-0.21348165,-0.17605513,-0.048715644,-0.15066065,-0.03234616,0.19292875,0.10969307,0.12762004,0.10799042,0.1696543,-0.10297622,0.055717073,0.09923743,0.17699544,-0.20528066,-0.12279925,-0.061601497,0.17624322,-0.030141223,0.20479733,0.13572916,-0.15812972,0.04165871,-0.14752461,0.027550949,-0.012505761,-0.13097258,0.046163402,-0.16487788,-0.17464285,-0.019457985,-0.1630957,0.07903846,-0.12009986,0.090008676,-0.15492044,0.077625476,-0.16001159,-0.17097537,-0.0647655,-0.13457334,0.055812355,-0.20817843,-0.017033527,0.095662005,0.089823626,-0.16164374,-0.13189523,0.21853165,0.0824797,0.111172356,0.043335367,0.100621305,-0.1094974,-0.09022098,-0.0799319,-0.22713499,0.10714635,0.14703375,0.052553818,0.12232937,-0.072024405,-0.11180184,0.14737618,0.12093775,-0.006850451,-0.053839147,-0.1603325,-0.026157383,0.1821886,-0.118056886,-0.09295626,-0.087869026,-0.04208798,-0.0011470898,-0.008474239,-0.014305262,0.10085407,-0.05461898,0.13755456,-0.15906921,-0.107066415,-0.090515465,0.09136636,-0.21211429,-0.014667628,-0.2238734,-0.031216115,-0.06286079,-0.038184963,0.06148385,-0.16347148,0.15626906,-0.16866066,0.06992846,0.08747286,0.13505028,-0.17701827,0.10570042,-0.10483978,0.10747741,-0.16021684,0.18371332,-0.13090752,-0.080503695,0.15496112,-0.15139553,-0.04389393,-0.08893019,0.031236,0.07333629,-0.027303128,0.021427983,-0.050531983,0.11999145,-0.054988805,-0.082919955,0.009928659,-0.21461643,0.15856594,0.05029077,0.046206113,0.005781345,-0.079149045,0.10370228,-0.1043889,-0.07353979,-0.15508255,0.1182735,-0.19279242,0.18870953,0.024034444,0.19216706,-0.023108475,-0.056380015,0.13791198,0.0025103996,-0.047011852,-0.13724808,-0.00092116604,0.097098045,-0.064582884,0.12992562,0.051902223,-0.10924939,0.02440707,0.008880364,-0.09296405,-0.12379135,-0.11274646,-0.061136298,-0.13448445,-0.13610382,0.047484733,-0.15913074,-0.050290164,0.0729472,0.102860406,0.16362478,-0.09210733,-0.0012465091,-0.115631446,-0.11763867,-0.12513037,0.06374315,-0.022597376,-0.1197023,-0.15974642,0.11177469,0.00045551313,-0.1668779,0.16108593,0.0017518643,0.22629459,0.06166229,-0.12779787,-0.10799673,-0.14824948,-0.1139854,0.08120405,0.06457574,0.16902006,0.09581353,-0.10643508,0.03493805,0.097617745,-0.14832152,-0.15113465,-0.03676801,-0.086470984,0.10705142,-0.031101568,-0.09999896,-0.22429001,-0.0910421,0.06448872,0.16858853,0.18453805,-0.1601641,0.05696463,-0.16070312,-0.10178246,0.15042347,0.094129845,-0.028516894,-0.1021409,-0.08607067,-0.056491025,-0.13253598,-0.092409045,-0.08840367,-0.00817783,0.14425868,-0.15192321,-0.13215926,0.085500784,0.14211127,-0.042841826,0.19999215,0.12081111,0.09446575,0.09197624,0.06338405,-0.024526276,-0.017767917,0.07679611,0.13978422,0.21163535,-0.064404495,-0.10767524,0.13768794,-0.11479688,0.21481152,-0.077192895,-0.04359324,0.019425308,0.026129827,-0.046124287,0.11314497,-0.11560113,0.09712363,0.11215562,0.108803794,-0.16718937,-0.13375524,0.0496921,-0.07953144,0.058672357,-0.15129226,0.06450205,-0.029540656,-0.09944011,0.02272509,0.053853925,0.03674142,-0.05716672,0.12450062,0.094275646,0.115471184,0.056186035,-0.12970403,-0.10951097,0.026931096,0.11148826,0.14491186,-0.0017646239,0.06177448,-0.060521588,0.08851871,-0.15956473,0.105489135,0.13118166,0.011681429,-0.15501083,-0.12550406,0.015772143,0.11799734,0.12886238,-0.05297901,0.05196155,0.03410691,0.0871802,0.02664529,-0.061224543,-0.115656465,-0.18531021,-0.040918108,-0.02775028,-0.014510335,-0.09796923,0.1325966,0.06272564,0.14613488,0.09807317,0.12528154,0.07883344,0.018335622,0.1293736,-0.11451279,0.12790021,0.016014457,0.032353804,-0.18557309,0.0073004076,-0.060607564,-0.07390243,0.15669736,-0.16339523,0.1354751,-0.114944786,-0.026539411,0.14238462,-0.16736147,-0.11023893,-0.14674637,-0.081156075,-0.08545756,-0.09997587,0.050142307,0.14374717,-0.0028806275,-0.1740008,0.0747481,0.043632697,0.14985082,0.089926526,-0.002039563,0.06496428,-0.11708887,0.032440286,-0.13825251,0.037573956,0.19093864,0.011477063,-0.16841185,0.10622044,-0.24728099,-0.044435363,-0.1934683,-0.07438316,-0.049705636,0.15104492,-0.085097,-0.09723414,0.10488101,-0.012291608,0.098877,-0.11583164,0.11933734,-0.011246213,-0.04270801,-0.112206504,0.027233338,-0.0396233,0.17240314,0.108306915,-0.14917773,0.11588631,-0.0581346,-0.153867,-0.21515082,-0.17148417,-0.015249933,-0.0872157,0.20347045,-0.09879736,0.05767466,0.13638087,0.16251859,0.009082126,0.1442768,-0.0067388066,0.14771919,0.10434847,-0.091531314,0.043564036,0.11220588,-0.20326294,-4.4951565e-05,0.008004502,0.18456207,-0.034685355,-0.058425974,-0.119159274,-0.16925883,-0.16011903,-0.22000125,0.10881772,0.20448665,0.13063367,-0.08577253,-0.030148022,0.124513775,-0.023716995,0.16272219,-0.032567583,0.12543407,0.0901964,0.14182839,-0.067772985,0.14781879,0.14712706,-0.1053309,0.0043438086,0.20320465,0.1902912,0.03859716,0.05068171,-0.030436488,-0.08378116,-0.10121426,-0.06330638,0.02875347,-0.13422579,0.14233492,-0.121968,0.18242934,0.1389595,0.16068281,0.0044551357,-0.09530443,0.058778964,0.052311987,0.08466373,0.15345246,0.11524518,0.14038686,-0.022943186,-0.0709818,0.14460701,-0.20243238,-0.17148472,-0.0655507,0.058189772,0.031256948,0.08488907,0.13797946,-0.03855025,-0.1720834,-0.058220454,-0.14733556,-0.12882091,-0.14374419,-0.09378672,-0.16711232,0.14589177,0.18130405,0.05035939,0.0068098977,0.07381541,-0.13270351,0.07256019,-0.06339918,-0.18917298,-0.1983603,-0.15300067,-0.063533396,0.0809995,0.16040486,0.08804445,-0.08711777,0.18415162,0.0019811892,0.13946502,0.16412197,-0.01074015,0.11781252,-0.060680527,-0.21011469,0.13426222,-0.082726635,0.075981915,0.08553553,0.13034666,-0.048295192,-0.184887,-0.012520379,-0.08830156,0.20805505,-0.2029536,-0.1275358,0.24419287,0.107284285,-0.019827079,0.020146707,-0.009320585,0.022728963,-0.05738255,-0.0986407,0.10681718,0.10853045,-0.084993295,-0.022864375,-0.05133895,-0.08399827,-0.019062687,-0.1374864,0.09494841,0.09819764,-0.02859566,0.1887632,0.11947623,0.033176325,0.010122569,-0.025639025,-0.13422646,0.035240877,0.016324937,0.011751369,0.0040259035,-0.14470866,-0.16730346,0.0601621,0.08812061,0.08132139,-0.17024535,-0.05860237,0.124313034,-0.12744147,-0.082181424,-0.17641042,-0.14764658,-0.015170912,0.0495012,-0.06279126,-0.016077196,0.039869945,0.009467923,-0.044139076,0.16462472,-0.09438443,0.1652122,-0.16086327,0.0408394,-0.05575387,0.007751176,0.16831002,-0.16412991,-0.19344537,-0.06770857,0.21105067,0.0011828793,0.09306207,0.124657035,-0.105116814,0.10398982,-0.15185046,-0.0100212265,0.16562478,0.12747006,0.15468019,-0.11475376,0.06510529,-0.13722941,0.041887306,0.18949793,-0.16086362,0.19120125,0.12500699,-0.1221965,0.06406795,0.1267965,seen,Panobinostat+Dasatinib,Panobinostat,Dasatinib,HDAC inhibitor,EGFR inhibitor,HDAC inhibitor and EGFR inhibitor,seen
Givinostat+Tanespimycin,-0.14934601,0.101104416,-0.00043781614,0.15880194,-0.1466096,0.036721405,0.026372602,0.036497716,0.03789178,-0.079724,-0.048307005,0.008786231,0.073016204,-0.02492169,-0.05921045,-0.016471501,-0.087545,0.0126710255,0.1588983,-0.0074724006,0.002131897,0.026671054,-0.011521412,0.07604759,0.033797987,0.01606859,0.057336383,0.10668494,-0.066993125,0.12156302,-0.01801474,0.17426355,0.07234735,0.010873805,-0.08042725,-0.08115359,0.050528683,-0.024825867,-0.10911392,-0.105397046,0.07880165,0.111512735,0.049489137,0.048339404,0.01449781,-0.10956973,-0.026273588,0.07860902,-0.14001735,-0.051529534,0.029947849,-0.08407478,-0.010649215,0.15172058,-0.047087226,-0.1728919,-0.017122285,0.052993637,-0.11313931,0.14553092,-0.028289706,0.098236814,-0.08275262,0.07273072,0.019419177,-0.12896158,-0.028516155,0.019502807,-0.06100193,-0.036445446,0.0050908225,-0.016561942,0.13193506,0.05390589,0.07369603,0.12835114,-0.03462292,0.08840798,-0.091659695,-0.17474195,0.06451431,-0.10656802,-0.05459843,-0.092179835,0.03509128,0.041535262,0.09326918,-0.048172627,-0.013328974,0.056205414,0.16768445,0.06984161,-0.049872857,0.09863699,-0.024394678,-0.020616299,-0.073140785,-0.0023474523,-0.06920346,0.096497215,-0.01562987,0.108089946,0.087754115,0.043191057,-0.04883703,0.18391334,-0.07153199,-0.008002697,-0.15139958,-0.060732123,-0.033048443,0.008822231,0.1421273,0.0013120535,-0.061749585,-0.06504958,-0.1313597,0.07183364,-0.071111135,-0.063341565,-0.075107396,0.14481236,-0.09451622,0.0070388885,-0.051701993,0.058971256,-0.024861695,-0.050346814,-0.08178242,0.034283068,-0.063066825,-0.045625016,0.13395765,-0.012701881,-0.13553138,0.12365159,-0.10521419,-0.07317908,0.022175258,0.017570207,-0.121235535,0.0063228603,0.030806499,-0.09907051,0.019875338,0.04344293,0.040199243,-0.042007603,-0.059887443,-0.043054216,-0.12831171,-0.090044744,-0.036553595,-0.0065734438,-0.020718593,0.035085384,0.05747272,0.10448806,-0.011777332,0.036890283,0.007421938,-0.07878107,-0.08846539,-0.07584552,-0.019006915,0.15052296,0.1650103,-0.021624796,-0.06764354,0.19916256,0.12523557,-0.0086150225,-0.0809601,0.0812529,-0.05239311,-0.03409069,-0.034160756,-0.010994136,-0.02960321,0.015394688,0.118513785,-0.06959437,0.05032348,0.013987126,-0.095264226,-0.055106536,-0.062488407,0.0947344,-0.17017917,-0.12972812,0.03190134,-0.017635725,0.033722658,-0.077355124,0.0630919,-0.09047818,0.037303925,-0.020665664,-0.0047956803,-0.019581456,0.14781164,-0.17651138,0.042503595,0.16609879,0.09691587,0.1550039,0.14546542,-0.0067572226,0.06684952,0.19136804,-0.052516717,-0.13690284,-0.05097959,0.12577792,0.18915571,0.07175987,-0.02071069,-0.1504007,-0.046169747,-0.12087963,-0.01579541,0.07691327,0.020741899,-0.0073663956,-0.01076431,0.1392295,0.05566289,-0.06702761,0.02491968,-0.00939703,0.0025138508,0.051409155,-0.059233308,-0.14610934,-0.0013619303,-0.008028884,-0.06565543,-0.05204386,-0.014829552,-0.042250145,-0.026675064,0.04233396,0.07023851,-0.03674674,0.10217125,0.050490793,-0.059804708,-0.024019957,-0.11655778,-0.09118852,0.09259972,0.094999276,0.101586655,-0.011849314,0.12318779,0.019129556,0.030707907,-0.17654411,0.035273295,0.050426323,-0.05525505,0.035617195,-0.067690216,-0.04181856,0.037169937,-0.0051442506,-0.03239656,-0.0713289,-0.013291562,-0.060374085,-0.0052941535,0.040943004,-0.06662315,-0.081405,0.058541074,0.0010142636,0.10691923,0.1234211,-0.01842192,0.10046559,0.106920704,-0.073662624,0.12036413,0.06553812,-0.035425693,-0.04782875,0.13412483,0.12233593,0.031223718,-0.111735955,-0.027860783,0.0621864,-0.025739776,-0.018931974,-0.01568248,-0.10900443,-0.10537752,0.0380158,0.029293394,0.085994065,-0.03245392,0.09451635,0.18202151,-0.013719594,0.17842816,-0.11965951,-0.021682726,-0.12884091,-0.047871225,-0.108965196,-0.08207889,-0.057423238,0.048757054,0.08347401,0.0070404047,0.04721262,0.035341527,0.0610034,0.034561794,0.14431119,-0.015874902,-0.110790074,0.015124407,0.081502095,0.06738755,0.013023153,0.0733316,0.12217137,-0.18766372,0.10164566,-0.08018247,0.060123194,-0.04274924,0.10550283,0.00753637,-0.014718115,0.012036704,0.09855292,-0.0119345235,-0.053529423,-0.11571507,-0.15606275,-0.009292116,0.113438345,0.048590608,0.10509594,-0.04425845,-0.0092941625,0.008459143,-0.13895324,0.07280942,-0.100618534,0.064911194,-0.008249266,0.07542375,0.031072192,-0.014095155,0.022572575,-0.027786307,-0.018353157,0.002795959,0.060815904,-0.08879233,-0.15306208,-0.06410492,0.15742299,-0.16390231,0.08789236,-0.036324915,-0.02419785,-0.076150805,0.12473771,0.041556858,-0.011487585,-0.03592065,0.09776175,-0.07600674,0.123382196,0.0007208646,0.04058577,0.051616836,-0.02303121,-0.028777333,0.05599975,-0.015960831,-0.027156968,-0.06277748,-0.072414756,-0.078366704,0.09243401,-0.030290551,-0.040316325,0.010365399,0.025029903,-0.08361544,-0.09699819,-0.017654316,-0.06664943,0.14862205,-0.204048,0.07148928,-0.0632357,0.021533296,-0.059680693,-0.020139748,0.1557039,0.1421861,0.05813338,-0.0784008,-0.08658099,0.051229574,-0.13491377,-0.039603382,-0.20745853,-0.0014877846,0.05467107,-0.08256251,0.07061378,0.05006001,-0.12659968,-0.0075832848,-0.1811678,0.079888165,0.07053437,0.07593825,-0.018762823,0.0075084935,-0.030481348,0.075704105,-0.13929018,0.0022579178,0.1327541,0.011611586,-0.045043927,0.10412054,0.11513659,-0.03150836,-0.08432692,-0.07081548,0.09433122,0.052415963,-0.16023912,0.120186016,-0.10308366,-0.07555823,0.08487444,0.04822524,-0.14873412,-0.007083321,-0.02492877,-0.074372195,0.074233994,-0.109853186,0.02901444,-0.019373018,-0.033413604,0.013076007,0.11581949,0.18683136,0.03186351,0.013763868,0.0026128283,0.16068983,0.13402754,0.04140666,0.038580082,-0.05524233,-0.07455,-0.15238474,-0.1612365,0.016170379,-0.11321778,0.08331161,-0.001660096,-0.038845945,0.032061636,0.12030752,0.04161115,0.115740456,0.0682829,-0.07430867,-0.07202799,0.0282232,0.073532805,-0.049276564,0.059611216,0.02508614,0.023040837,0.044527613,-0.13081598,0.014646517,0.10938656,-0.020304183,0.050878543,0.052854296,0.14785111,-0.021572739,0.15704808,0.02613519,0.09146659,0.10522396,0.050088506,0.08383122,-0.11429666,0.062623255,0.105683275,-0.1085309,-0.116012834,0.15893762,-0.05657331,-0.049168117,-0.07742336,-0.05915308,0.13075955,0.02639008,0.10231745,0.020614134,0.0980542,0.057589125,0.089925155,-0.08179488,0.10220538,-0.10336488,0.0828695,0.09907519,-0.008116506,0.051835056,-0.069954745,-0.05374763,0.0013336315,0.09300669,-0.0737935,-0.04217637,0.03837372,-0.024284596,0.14112018,-0.06792413,0.17138703,-0.10487964,0.017863706,0.0025585077,-0.09150245,0.05709133,0.15443105,0.118759796,-0.11761334,-0.0038611165,0.0841876,0.10904222,4.81857e-05,-0.1330823,0.075276725,-0.0021619564,0.13704069,-0.033744443,-0.025897428,0.051312484,-0.08648217,-0.17005186,0.024198253,0.068728045,-0.0029360699,-0.036215022,0.01976858,0.0031940765,0.008732753,-0.01174722,-0.06528821,-0.03480838,-0.0025484106,0.10112074,-0.04699142,-0.10104429,-0.005570161,0.09936355,0.12009396,-0.12465395,-0.0005035093,0.072231546,-0.069542296,0.17527294,-0.09923527,-0.11147703,-0.004942894,-0.10855195,0.08942419,-0.011964507,0.008091226,0.12192726,0.14922367,-0.13521753,0.13841674,-0.09766287,-0.0029910954,-0.047592953,-0.0064447774,0.05078693,-0.12271848,0.01175682,-0.06400032,-0.033414293,0.078686066,0.059870463,-0.10097419,-0.010868421,-0.0715811,0.13181601,-0.13420808,-0.082287,0.15630572,0.082765594,-0.119425885,-0.013638974,0.18227482,-0.08017748,-0.030112827,0.06556158,-0.04440312,-0.08423267,-0.026302153,-0.0806229,0.09402147,0.06278417,0.10991412,0.056213524,0.008974362,-0.023764893,0.083472595,0.031174667,0.08613839,-0.16023159,0.030077267,0.17744815,-0.010029516,0.14731182,-0.10006063,-0.060290296,0.06619035,-0.09087526,0.115917295,0.08579689,-0.113893434,0.035019908,-0.070791826,-0.10327409,-0.0066321855,0.046006784,-0.13750605,0.05878613,0.0680615,0.10377019,-0.03537695,-0.09037133,-0.073466085,0.09115323,0.022143299,0.03510473,0.119507454,-0.06460877,0.017599128,-0.058133885,-0.04362181,0.022180595,0.09895006,-0.19615301,0.15787876,0.06442655,0.16086079,-0.010735244,0.010169809,0.04578947,-0.15123396,0.019288268,0.14259784,-0.06356065,-0.014944355,-0.04412011,-0.026917133,0.013303226,0.064247765,-0.15385698,0.027428325,-0.14399025,-0.06912703,0.09329124,-0.0038006303,-0.013918898,0.059890643,-0.14167215,-0.0029937462,0.00042469567,0.08199357,-0.20839046,0.091369934,-0.06342822,-0.07283395,0.1363842,0.013617315,-0.16077606,0.110298246,-0.08997857,0.1340265,-0.03922468,-0.01875699,0.039446555,0.09973125,0.1664863,0.07110879,0.0034018517,0.13325551,0.15082039,0.058975644,-0.11503245,0.12439446,0.018196581,-0.067300454,-0.09280313,0.02255162,-0.0042010606,-0.043971933,0.12890211,-0.13076521,0.017308101,-0.03517863,-0.11092027,-0.20214005,0.07799499,-0.045868322,0.017442338,0.11636916,-0.0894086,0.016198635,-0.026558189,-0.045338742,0.06734757,0.15301475,0.13667104,0.037448745,0.108431846,-0.08469572,0.14514427,-0.1438321,-0.088193424,0.024005005,-0.08275844,-0.034879655,0.038993742,0.050508324,0.043437928,-0.040127505,0.014238162,-0.043408494,-0.10523417,-0.049586426,-0.0447989,-0.03256671,-0.085797526,-0.05613519,0.11734446,-0.060168423,0.13291341,0.014326626,-0.14705797,-0.04218904,0.022538152,0.14076254,-0.119037926,-0.0018842441,-0.14984919,0.20996927,0.059754577,0.012517322,-0.0862591,-0.079775594,0.022554565,0.019435346,0.07541632,0.14333165,0.08153312,0.015378843,0.033321153,-0.10197723,0.1174752,0.091580555,-0.119802795,0.12592395,-0.042410232,0.06483388,-0.08294121,-0.017572671,-0.005767175,-0.048394836,0.0843823,0.09205465,-0.01092285,-0.020388985,0.07432358,0.0537658,0.14808232,0.14616174,0.1035427,-0.12023667,0.05622077,-0.15693353,0.0028121,-0.07382872,0.0047943797,0.011197088,-0.07408035,0.051915295,-0.082876615,-0.02501954,-0.07610814,-0.005647442,-0.01609827,0.058542203,-0.15076013,-0.16215803,0.094530016,0.0035371727,0.095372945,0.029988032,-0.01992956,0.15737331,0.18053897,-0.13074772,-0.091105215,0.024817303,-0.041206095,-0.13126284,-0.088619724,-0.06185277,-0.11861973,-0.024318444,0.00846936,0.15386324,0.07117205,0.02473168,-0.0064321235,0.12221313,0.042795546,0.10334206,0.035737436,-0.0046185926,0.020592872,0.045640238,-0.015206264,0.104130104,0.09547862,-0.01471745,0.060459435,-0.19391134,-0.06514511,0.021687444,-0.15629035,0.013935794,-0.07786402,-0.049693774,0.110418715,-0.08761978,0.079008594,0.00304174,0.01603048,-0.06895884,-0.005099523,0.073138595,-0.05393929,-0.042063177,-0.002314118,-0.08867948,-0.010267191,0.17040849,0.10496177,-0.06535543,0.031527024,0.07176308,-0.017599309,0.010618273,-0.061593913,-0.02904824,-0.027350951,-0.0058742897,0.026833832,0.088873364,-0.1744732,0.03458745,-0.091117725,-0.053737413,-0.078877896,-0.040362526,0.087115586,-0.0278304,0.047172144,0.15658285,0.01792446,-0.075677074,0.020231264,-0.06773544,-0.05977669,0.01515928,0.06685385,0.09480207,0.06599918,0.14027496,0.093983114,0.01934392,-0.011731968,-0.04939326,0.040215157,0.10293594,-0.035364475,0.031730086,-0.09054595,0.0814548,-0.06498714,0.025838729,-0.045035224,0.07054865,-0.02156488,0.020524932,-0.135616,-0.17808121,0.11278963,-0.010609667,0.11680047,-0.031038089,0.03362729,-0.10030175,-0.025097923,0.025547162,0.103960514,0.034349926,0.10085431,-0.096628785,0.11946299,0.003958538,0.007337699,-0.037333615,-0.010952345,0.08165945,-0.0074643334,0.0081862165,0.11830626,-0.14428511,-0.07305395,-0.026340896,-0.15711421,-0.045120668,-0.041092604,0.09526134,0.00014163164,0.03859088,-0.12945661,0.08849944,-0.014011538,0.033596728,0.06408047,0.045453668,0.060575746,-0.016936926,-0.13597454,-0.08076425,-0.050636444,-0.02221431,-0.07505827,0.16092178,-0.13308337,0.06942313,-0.08126102,0.16107382,-0.07204485,0.111814104,0.066176385,1.7129409e-05,-0.112280115,-0.11549822,0.10392604,0.051517867,-0.051410735,-0.012509374,0.043329224,-0.02105426,0.07735389,0.12778808,-0.039194986,0.06931969,0.052272905,-0.10769529,0.14571986,0.11278325,-0.07111429,-0.12933454,0.0014729588,-0.0768692,0.08625288,-0.05086076,-0.023906814,-0.08796471,-0.015729852,0.003498405,0.033483826,0.14463653,-0.10457387,0.032565046,-0.07633588,-0.0051764734,0.14485383,-0.06955431,0.09589159,0.02681646,0.017404782,-0.09897641,-0.06415868,0.11754871,0.1035293,-0.030089874,0.038897734,-0.033591863,0.08553379,-0.025437731,-0.055438783,-0.061355095,0.065976314,0.019056518,seen,Givinostat+Tanespimycin,Givinostat,Tanespimycin,HDAC inhibitor,Protein folding & Protein degradation,HDAC inhibitor and Protein folding & Protein degradation,seen
